svm_type c_svc
kernel_type rbf
gamma 1.220703125E-4
nr_class 2
total_sv 337
rho -8.545547420738686
label 1 0
nr_sv 169 168
SV
14.795735862924385 1:0.375 2:0.458333 3:0.357143 4:0.416667 5:0.344828 6:0.846154 7:0.539062 8:1.0 9:0.344828 10:0.2 11:1.0 12:1.0 13:0.180617 14:0.0212766 15:0.0714286 16:0.219512 17:0.0769231 18:0.0344828 19:0.333333 20:1.0 21:1.0 22:0.00724638 23:0.015873 24:0.0625 25:0.636364 26:0.736842 27:0.108108 28:0.05 29:0.153846 30:0.0111111 31:0.2 32:0.5 33:0.037037 34:0.111111 35:0.25 36:0.62069 37:0.05 38:0.0289855 39:0.0454545 40:0.173077 41:1.0 42:1.0 43:1.0 44:0.4 45:0.0357143 46:0.0900901 47:0.5 48:0.0888889 49:0.0909091 50:0.0769231 51:0.0588235 52:0.012987 53:0.333333 54:0.333333 55:0.166667 56:0.0769231 57:0.166667 58:1.0 59:0.08 60:0.166667 61:0.25 62:0.142857 63:0.111111 64:0.111111 65:0.166667 66:0.105263 67:0.075 68:0.25 69:0.0833333 70:0.0576923 71:0.0952381 72:0.0142857 73:0.0163934 74:0.2 75:0.125 76:0.222222 77:0.0306122 78:0.142857 79:0.125 80:0.148649 81:1.0 82:0.34 83:0.0952381 84:0.0909091 85:0.0217391 86:0.0277778 87:0.0714286 88:0.0588235 89:0.142857 90:0.05 91:0.428571 92:0.04 93:0.428571 94:0.40625 95:0.2 96:0.333333 97:1.0 98:0.105263 99:0.666667 100:0.0857143 101:0.166667 102:0.0357143 103:0.125 104:1.0 105:0.0588235 106:1.0 107:0.0263158 108:0.1 109:0.555556 110:0.121212 111:0.0333333 112:0.047619 113:1.0 114:0.571429 115:0.5 116:0.4 117:0.588235 118:0.111111 119:1.0 120:1.0 121:1.0 122:0.909091 123:0.264706 124:0.25 125:0.0833333 126:0.5 127:0.5 128:0.111111 129:0.4 130:1.0 131:0.333333 132:0.2 133:0.0606061 134:1.0 135:0.333333 136:0.0201342 137:0.190476 138:1.0 139:0.538462 140:0.916667 141:0.230769 142:0.4 143:0.5 144:0.538462 145:0.5 146:0.0487805 147:0.28 148:0.151515 149:0.0344828 150:1.0 151:0.157895 152:0.0384615 153:0.666667 154:0.6 155:0.375 156:1.0 157:1.0 158:0.75 159:0.037037 160:0.111111 161:1.0 162:0.333333 163:0.5 164:0.111111 165:0.25 166:0.5 167:0.25 168:0.0606061 169:0.2 170:0.2 171:0.0588235 172:0.333333 173:0.333333 174:0.0666667 175:0.0666667 176:0.0625 177:0.111111 178:0.666667 179:1.0 180:1.0 181:0.047619 182:0.142857 183:0.03125 184:0.04 185:0.5 186:0.125 187:0.142857 188:0.2 189:0.25 190:0.216216 191:0.333333 192:0.25 193:0.133333 194:0.2 195:0.333333 196:0.6 197:0.25 198:0.25 199:0.333333 200:0.5 201:0.0454545 202:0.0487805 203:0.166667 204:0.0392157 205:0.0714286 206:0.166667 207:0.0833333 208:0.136364 209:0.25 210:0.333333 211:0.75 212:0.0757576 213:0.5 214:0.097561 215:0.0444444 216:0.166667 217:0.2 218:0.0204082 219:0.0526316 220:0.166667 221:0.047619 222:0.05 223:0.25 224:0.0666667 225:0.0588235 226:0.0526316 227:0.0555556 228:0.0526316 229:1.0 230:0.0526316 231:0.125 232:1.0 233:0.0136986 234:0.0555556 235:0.0666667 236:0.25 237:0.0588235 238:0.333333 239:0.125 240:0.027027 241:1.0 242:0.0344828 243:0.142857 244:0.25 245:0.5 246:0.25 247:0.0437956 248:0.333333 249:0.25 250:0.25 251:0.0192308 252:0.5 253:0.05 254:0.0253165 255:0.0454545 256:0.0526316 257:0.0588235 258:0.125 259:0.0833333 260:0.5 261:0.030303 262:0.111111 263:0.0357143 264:0.0416667 265:1.0 266:0.0526316 267:0.75 268:0.117647 269:0.125 270:0.333333 271:0.392857 272:0.25 273:0.0588235 274:1.0 275:0.2 276:0.142857 277:0.109091 278:0.428571 279:0.166667 280:1.0 281:0.025 282:0.5 283:1.0 284:0.03125 285:0.025641 286:0.0140845 287:1.0 288:0.115385 289:0.166667 290:0.428571 291:0.25 292:1.0 293:1.0 294:0.5 295:0.0714286 296:0.111111 297:0.025 298:1.0 299:0.0909091 300:0.133333 301:0.5 302:0.2 303:0.0666667 304:0.833333 305:0.8 306:0.307692 307:0.411765 308:0.0263158 309:0.384615 310:1.0 311:0.25 312:0.0344828 313:0.142857 314:0.4 315:0.0526316 316:0.0384615 317:1.0 318:0.0384615 319:0.0714286 320:0.25 321:0.142857 322:0.4375 323:0.25 324:0.2 325:0.333333 326:0.1 327:1.0 328:0.125 329:0.5 330:0.25 331:0.246154 332:0.285714 333:0.230769 334:1.0 335:0.5 336:1.0 337:0.666667 338:1.0 339:0.357143 340:0.153846 341:0.181818 342:1.0 343:0.0344828 344:0.25 345:0.142857 346:0.0666667 347:0.25 348:0.0666667 349:0.4 350:0.153846 351:0.0555556 352:0.25 353:0.0833333 354:1.0 355:1.0 356:0.619048 357:1.0 358:0.0909091 359:0.25 360:0.5 361:0.25 362:0.304348 363:0.166667 364:0.1875 365:0.2 366:0.166667 367:0.0425532 368:0.388889 369:0.166667 370:0.125 371:1.0 372:0.103448 373:0.05 374:0.7 375:0.285714 376:0.25 377:0.113636 378:0.5 379:0.0344828 380:0.00869565 381:0.047619 382:0.307692 383:0.5 384:0.142857 385:0.04 386:0.025 387:0.0416667 388:0.08 389:0.0625 390:0.05 391:0.0188679 392:0.0192308 393:0.0215054 394:0.375 395:0.2 396:0.333333 397:0.2 398:1.0 399:0.125 400:1.0 401:1.0 402:0.4 403:0.25 404:0.208333 405:0.105263 406:1.0 407:0.0833333 408:0.333333 409:0.037037 410:0.0204082 411:0.0153846 412:1.0 413:0.333333 414:0.166667 415:0.166667 416:0.0909091 417:0.333333 418:0.5 419:0.0714286 420:0.0178571 421:0.1 422:0.1 423:0.166667 424:1.0 425:0.166667 426:0.333333 427:1.0 428:0.333333 429:1.0 430:0.0606061 431:0.0116279 432:0.5 433:0.2 434:0.25 435:0.0227273 436:1.0 437:0.2 438:0.5 439:1.0 440:0.5 441:1.0 442:0.0416667 443:0.1 444:0.027027 445:0.142857 446:1.0 447:0.166667 448:0.333333 449:0.04 450:1.0 451:1.0 452:0.166667 453:0.5 454:1.0 455:0.2 456:0.25 457:1.0 458:0.0322581 459:0.0285714 460:0.0588235 461:0.0666667 462:1.0 463:0.333333 464:1.0 465:0.666667 466:1.0 467:0.25 468:0.2 469:0.2 470:0.0227273 471:0.5 472:0.2 473:1.0 474:1.0 475:0.333333 476:1.0 477:0.5 478:0.5 479:1.0 480:0.333333 481:0.2 482:0.0227273 483:1.0 484:1.0 485:1.0 486:0.0204082 487:0.666667 488:0.333333 489:0.0454545 490:0.333333 491:0.333333 492:1.0 493:0.025641 494:0.0666667 495:0.125 496:1.0 497:0.0909091 498:1.0 499:0.0526316 
4.367910888210818 1:0.416667 2:0.0416667 3:0.392857 4:0.291667 5:0.344828 7:0.0078125 13:0.00440529 16:0.0487805 17:0.615385 23:0.15873 27:0.0540541 30:0.155556 36:0.413793 37:0.325 40:0.25 46:0.018018 48:0.0222222 51:0.117647 52:0.012987 53:0.166667 55:0.166667 56:0.153846 57:0.166667 60:0.0833333 62:0.142857 66:0.105263 70:0.0384615 71:0.047619 72:0.0142857 75:0.125 77:0.0816327 80:0.22973 82:0.02 83:0.047619 86:0.0277778 88:0.147059 90:0.1 109:0.0555556 110:0.121212 111:0.166667 121:0.0833333 123:0.0294118 134:0.0588235 137:0.380952 141:0.025641 146:0.0487805 148:0.272727 153:0.333333 155:0.125 158:0.25 159:0.037037 160:0.222222 163:0.5 167:0.25 168:0.030303 171:0.0588235 172:0.333333 173:0.333333 175:0.666667 181:0.047619 187:0.142857 190:0.0540541 193:0.133333 194:0.2 198:0.25 200:0.5 202:0.0243902 203:0.166667 206:0.0833333 207:0.0833333 210:0.166667 212:0.106061 214:0.170732 219:0.0526316 223:0.5 230:0.0526316 234:0.0555556 240:0.459459 241:0.0666667 258:0.25 261:0.333333 262:0.111111 263:0.178571 276:0.142857 303:0.133333 309:0.230769 310:0.333333 312:0.0344828 318:0.384615 322:0.125 324:0.1 326:0.5 331:0.0461538 352:0.125 356:0.047619 361:0.375 368:0.555556 372:0.0689655 373:0.0333333 378:0.5 380:0.00869565 381:0.047619 382:0.0769231 388:0.04 392:0.134615 393:0.0215054 401:0.142857 404:0.0833333 410:0.0204082 413:0.333333 419:0.0714286 420:0.0178571 430:0.030303 434:0.125 435:0.181818 437:0.2 442:0.0416667 443:0.1 455:0.266667 459:0.0285714 500:0.103448 506:0.133333 514:0.0105263 516:0.1 519:0.125 525:0.125 544:0.117647 550:0.153846 553:0.171429 567:0.142857 569:0.708333 581:0.0416667 583:0.0206186 585:0.0294118 593:0.2 597:0.1 600:0.103448 601:0.125 602:0.0666667 604:0.238095 607:0.0384615 612:0.1 621:0.0208333 625:0.111111 632:0.2 664:0.0208333 670:0.4 693:0.025641 694:1.0 703:0.0140845 705:0.0344828 706:0.0188679 713:0.0333333 729:0.5 747:0.0416667 748:0.333333 750:1.0 770:0.125 779:0.0144928 786:0.1 789:0.6 798:0.285714 806:0.0384615 813:0.222222 823:0.444444 835:0.014218 839:0.0909091 849:0.0519481 857:1.0 864:0.0714286 879:0.333333 927:0.0285714 963:0.133333 1004:1.0 1005:0.541667 1006:0.5 1007:0.409091 1008:0.35 1009:0.27027 1010:0.111111 1011:0.125 1012:0.333333 1013:1.0 1014:1.0 1015:1.0 1016:1.0 1017:1.0 1018:0.5 1019:0.459459 1020:0.111111 1021:1.0 1022:0.2 1023:0.125 1024:0.2 1025:1.0 1026:0.818182 1027:0.142857 1028:0.0333333 1029:0.590909 1030:0.555556 1031:1.0 1032:0.166667 1033:1.0 1034:0.153846 1035:1.0 1036:1.0 1037:0.115385 1038:0.0138889 1039:1.0 1040:1.0 1041:0.857143 1042:1.0 1043:0.421053 1044:0.333333 1045:0.25 1046:0.214286 1047:0.545455 1048:1.0 1049:0.125 1050:1.0 1051:1.0 1052:0.166667 1053:0.08 1054:0.666667 1055:0.5 1056:0.0120482 1057:1.0 1058:1.0 1059:1.0 1060:1.0 1061:0.125 1062:0.517241 1063:0.75 1064:1.0 1065:1.0 1066:0.125 1067:1.0 1068:1.0 1069:0.2 1070:1.0 1071:1.0 1072:0.0555556 1073:1.0 1074:1.0 1075:0.25 1076:1.0 1077:0.0106383 1078:1.0 1079:0.25 1080:0.5 1081:0.0909091 1082:1.0 1083:1.0 1084:1.0 1085:1.0 1086:0.5 1087:0.141176 1088:0.03125 1089:0.111111 1090:0.75 1091:0.230769 1092:1.0 1093:0.692308 1094:0.333333 1095:1.0 1096:0.181818 1097:0.333333 1098:0.5 1099:0.184211 1100:1.0 1101:0.0142857 1102:1.0 1103:0.5 1104:0.133333 1105:1.0 1106:1.0 1107:0.142857 1108:0.5 1109:1.0 1110:1.0 1111:0.0714286 1112:0.666667 1113:0.2 1114:1.0 1115:0.785714 1116:0.5 1117:0.666667 1118:0.5 1119:1.0 1120:0.166667 1121:1.0 1122:0.166667 1123:0.166667 1124:0.333333 1125:0.031746 1126:0.142857 1127:0.5 1128:1.0 1129:1.0 1130:0.0909091 1131:1.0 1132:0.592593 1133:1.0 1134:0.5 1135:0.666667 1136:1.0 1137:1.0 1138:1.0 1139:0.2 1140:1.0 1141:0.5 1142:0.111111 1143:0.5 1144:1.0 1145:0.2 1146:1.0 1147:1.0 1148:0.5 1149:0.285714 1150:1.0 1151:0.5 1152:0.2 1153:1.0 1154:0.0322581 1155:0.5 1156:0.428571 1157:0.125 1158:0.25 1159:0.5 1160:0.5 1161:0.0909091 1162:1.0 1163:1.0 1164:0.6 1165:0.0666667 1166:0.5 1167:1.0 1168:1.0 1169:1.0 1170:1.0 1171:1.0 1172:1.0 1173:0.133333 1174:0.166667 1175:1.0 1176:0.25 1177:0.6 1178:0.5 1179:0.5 1180:1.0 1181:1.0 1182:0.1 1183:1.0 1184:0.3 1185:1.0 1186:1.0 1187:1.0 1188:1.0 1189:0.222222 1190:1.0 1191:0.153846 1192:1.0 1193:0.333333 1194:1.0 1195:1.0 1196:0.0434783 1197:0.275862 1198:0.228571 1199:0.4 1200:0.333333 1201:1.0 1202:1.0 1203:0.633333 1204:0.142857 1205:1.0 1206:0.190476 1207:0.111111 1208:0.333333 1209:0.125 1210:0.0769231 1211:1.0 1212:0.2 1213:0.333333 1214:0.5 1215:0.333333 1216:1.0 1217:0.0833333 1218:1.0 1219:1.0 1220:0.0769231 1221:1.0 1222:0.0769231 1223:0.428571 1224:1.0 1225:0.142857 1226:0.125 1227:0.1 1228:0.0291262 1229:0.111111 1230:0.15 1231:0.5 1232:0.5 1233:1.0 1234:1.0 1235:1.0 1236:0.108696 1237:0.4 1238:0.1 1239:1.0 1240:0.5 1241:1.0 1242:1.0 1243:0.0238095 1244:0.111111 1245:0.375 1246:0.125 1247:0.333333 1248:1.0 1249:0.916667 1250:0.0714286 1251:1.0 1252:1.0 1253:0.333333 1254:0.25 1255:0.222222 1256:0.333333 1257:0.5 1258:0.166667 1259:0.5 1260:1.0 1261:0.333333 1262:1.0 1263:0.047619 1264:1.0 1265:0.5 1266:0.25 1267:0.428571 1268:1.0 1269:0.0263158 1270:1.0 1271:0.142857 1272:1.0 1273:1.0 1274:0.0689655 1275:0.25 1276:0.333333 1277:0.0294118 1278:0.5 1279:0.5 1280:0.5 1281:0.5 1282:0.4 1283:0.111111 1284:0.0555556 1285:1.0 1286:1.0 1287:0.5 1288:0.0714286 1289:1.0 1290:0.8 1291:0.0909091 1292:1.0 1293:0.0612245 1294:1.0 1295:0.133333 1296:1.0 1297:0.25 1298:1.0 1299:0.25 1300:0.0909091 1301:0.5 1302:1.0 1303:0.25 1304:0.285714 1305:0.333333 1306:0.454545 1307:0.0666667 1308:0.5 1309:0.25 1310:0.25 1311:1.0 1312:1.0 1313:0.666667 1314:0.461538 1315:1.0 1316:1.0 1317:0.285714 1318:0.666667 1319:0.133333 1320:0.2 1321:0.222222 1322:0.25 1323:0.166667 1324:0.363636 1325:1.0 1326:0.125 1327:0.666667 1328:0.00925926 1329:0.00925926 1330:0.0625 1331:1.0 1332:1.0 1333:0.0769231 1334:0.5 1335:0.25 1336:1.0 1337:0.5 1338:0.333333 1339:0.363636 1340:0.333333 1341:0.2 1342:0.5 1343:0.5 1344:0.0526316 1345:0.176471 1346:0.2 1347:1.0 1348:1.0 1349:0.142857 1350:0.2 1351:0.333333 1352:1.0 1353:1.0 1354:1.0 1355:1.0 1356:1.0 1357:0.4 1358:1.0 1359:1.0 1360:0.2 1361:1.0 1362:0.5 1363:1.0 1364:1.0 1365:0.0909091 1366:1.0 1367:0.166667 1368:0.181818 1369:0.2 1370:1.0 1371:0.25 1372:0.0666667 1373:0.333333 1374:1.0 1375:0.5 1376:1.0 1377:0.0666667 1378:1.0 1379:0.333333 1380:0.666667 1381:0.28 1382:1.0 1383:0.125 1384:0.1 1385:0.333333 1386:0.1 1387:0.36 1388:0.0769231 1389:0.666667 1390:0.5 1391:0.0169492 1392:0.214286 1393:0.277778 1394:1.0 1395:0.333333 1396:1.0 1397:1.0 1398:1.0 1399:1.0 1400:1.0 1401:0.0909091 1402:0.142857 1403:0.333333 1404:1.0 1405:0.210526 1406:0.333333 1407:1.0 1408:1.0 1409:0.153846 1410:1.0 1411:1.0 1412:1.0 1413:0.25 1414:0.142857 1415:1.0 1416:1.0 1417:1.0 1418:0.5 1419:1.0 1420:1.0 1421:0.0833333 1422:1.0 1423:1.0 1424:1.0 1425:1.0 1426:0.148148 1427:0.333333 1428:0.5 1429:1.0 1430:0.111111 1431:0.2 1432:0.285714 1433:1.0 1434:0.166667 1435:0.2 1436:0.2 1437:0.216216 1438:0.5 1439:0.0394737 1440:0.428571 1441:0.0733945 1442:0.666667 1443:1.0 1444:0.5 1445:0.5 1446:1.0 1447:0.333333 1448:0.636364 1449:0.375 1450:0.5 1451:0.5 1452:0.333333 1453:0.333333 1454:1.0 1455:1.0 1456:0.5 1457:0.0714286 1458:1.0 1459:0.1875 1460:0.333333 1461:0.2 1462:0.333333 1463:0.25 1464:0.2 1465:1.0 1466:0.5 1467:1.0 1468:0.2 1469:1.0 1470:0.115385 1471:0.333333 1472:0.0714286 1473:0.176471 1474:1.0 1475:1.0 1476:1.0 1477:1.0 1478:0.111111 1479:0.125 1480:0.230769 1481:0.142857 1482:0.2 1483:0.234043 1484:0.137931 1485:0.2 1486:1.0 1487:0.333333 1488:1.0 1489:0.0810811 1490:0.05 1491:0.111111 1492:0.0196078 1493:0.0714286 1494:0.0769231 1495:0.5 1496:0.0588235 1497:0.25 1498:0.142857 1499:0.333333 1500:1.0 1501:0.285714 1502:0.0285714 1503:0.5 1504:1.0 1505:0.25 1506:0.111111 1507:0.0357143 1508:1.0 1509:1.0 1510:0.2 1511:0.285714 1512:1.0 1513:0.2 1514:0.0606061 1515:0.0833333 1516:0.5 1517:0.047619 1518:0.125 1519:1.0 1520:1.0 1521:1.0 1522:0.25 1523:1.0 1524:1.0 1525:0.0681818 1526:0.125 1527:1.0 1528:1.0 1529:0.375 1530:1.0 1531:0.25 1532:0.0294118 1533:0.333333 1534:1.0 1535:1.0 1536:0.0230769 1537:0.25 1538:0.0625 1539:1.0 1540:0.666667 1541:0.0833333 1542:1.0 1543:0.333333 1544:0.142857 1545:0.333333 1546:1.0 1547:0.0322581 1548:0.3 1549:1.0 1550:0.25 1551:0.2 1552:0.166667 1553:0.157895 1554:0.4 1555:0.166667 1556:1.0 1557:0.05 1558:0.5 1559:0.285714 1560:1.0 1561:0.142857 1562:0.25 1563:1.0 1564:0.5 1565:0.25 1566:0.0606061 1567:0.166667 1568:0.047619 1569:1.0 1570:1.0 1571:1.0 1572:0.0178571 1573:1.0 1574:0.5 1575:1.0 1576:0.2 1577:0.5 1578:0.142857 1579:0.0769231 1580:0.333333 1581:0.0416667 1582:1.0 1583:0.2 1584:0.5 1585:0.0294118 1586:0.666667 1587:1.0 1588:0.5 1589:1.0 1590:1.0 1591:0.111111 1592:0.142857 1593:0.25 1594:0.030303 1595:0.285714 1596:0.333333 1597:0.222222 1598:0.5 1599:0.666667 1600:1.0 1601:0.1875 1602:0.125 1603:0.8 1604:0.111111 1605:1.0 1606:1.0 1607:0.136364 1608:1.0 1609:0.5 1610:0.0123457 1611:0.0307692 1612:0.12 1613:1.0 1614:0.5 1615:1.0 1616:1.0 1617:0.111111 1618:0.333333 1619:1.0 1620:0.5 1621:0.5 1622:0.2 1623:0.166667 1624:0.666667 1625:0.0277778 1626:0.0909091 1627:0.0769231 1628:1.0 1629:0.5 1630:1.0 1631:0.8 1632:0.0666667 1633:0.0833333 1634:0.25 1635:0.5 1636:0.0869565 1637:0.0666667 1638:0.0588235 1639:1.0 1640:1.0 1641:0.0625 1642:1.0 1643:0.333333 1644:0.5 1645:1.0 1646:0.5 1647:1.0 1648:1.0 1649:1.0 1650:1.0 1651:0.25 1652:1.0 1653:0.5 1654:0.333333 1655:0.1 1656:0.05 1657:0.0232558 1658:1.0 1659:1.0 1660:0.5 1661:1.0 1662:0.5 1663:0.2 1664:1.0 1665:0.0434783 1666:1.0 1667:0.2 1668:1.0 1669:0.142857 1670:1.0 1671:1.0 1672:0.666667 1673:1.0 1674:0.25 1675:0.333333 1676:0.5 1677:0.333333 1678:0.25 1679:1.0 1680:0.2 1681:1.0 1682:0.5 1683:0.2 1684:1.0 1685:0.25 1686:0.333333 1687:1.0 1688:0.5 1689:0.666667 1690:1.0 1691:1.0 1692:1.0 1693:1.0 1694:0.5 1695:1.0 1696:0.5 1697:0.125 1698:1.0 1699:1.0 1700:1.0 1701:1.0 1702:0.0909091 1703:1.0 1704:0.333333 1705:0.25 1706:0.5 1707:0.5 1708:0.2 1709:1.0 1710:1.0 1711:1.0 1712:0.166667 1713:1.0 1714:1.0 1715:0.285714 1716:1.0 1717:0.5 1718:0.363636 1719:0.153846 1720:0.1 1721:0.333333 1722:0.0357143 1723:1.0 1724:0.0588235 1725:1.0 1726:0.333333 1727:1.0 1728:1.0 1729:0.0298507 1730:0.75 1731:1.0 1732:0.666667 1733:0.333333 1734:0.333333 1735:1.0 1736:1.0 1737:0.2 1738:1.0 1739:0.0588235 1740:0.111111 1741:0.25 1742:0.4 1743:0.142857 1744:1.0 1745:1.0 1746:1.0 1747:1.0 1748:0.25 1749:1.0 1750:0.5 1751:0.0909091 1752:0.333333 1753:0.2 1754:1.0 1755:0.5 1756:0.15 1757:0.111111 1758:1.0 1759:1.0 1760:0.5 1761:0.5 1762:0.5 1763:0.6 1764:1.0 1765:1.0 1766:0.5 1767:1.0 1768:1.0 1769:1.0 1770:1.0 1771:0.125 1772:1.0 1773:0.210526 1774:0.0909091 1775:0.5 1776:0.666667 1777:0.25 1778:1.0 1779:0.5 1780:0.5 1781:1.0 1782:1.0 1783:1.0 1784:0.333333 1785:0.111111 1786:1.0 1787:1.0 1788:0.333333 1789:0.030303 1790:1.0 1791:0.333333 1792:0.333333 1793:1.0 1794:0.333333 1795:0.333333 1796:1.0 1797:0.111111 1798:0.5 1799:1.0 1800:0.222222 1801:1.0 1802:0.166667 1803:0.333333 1804:0.25 1805:1.0 1806:0.272727 1807:0.285714 1808:0.5 1809:1.0 1810:0.5 1811:1.0 1812:0.0322581 1813:1.0 1814:1.0 1815:0.142857 1816:0.5 1817:0.428571 1818:0.0212766 1819:1.0 1820:0.2 1821:1.0 1822:0.444444 1823:1.0 1824:0.166667 1825:0.0357143 1826:0.333333 1827:0.5 1828:0.333333 1829:0.111111 1830:0.333333 1831:0.5 1832:0.0185185 1833:0.333333 1834:1.0 1835:0.333333 1836:1.0 1837:1.0 1838:1.0 1839:1.0 1840:0.5 1841:0.5 1842:1.0 1843:0.333333 1844:0.2 1845:0.2 1846:0.133333 1847:0.0227273 1848:1.0 1849:1.0 1850:0.2 1851:0.0769231 1852:0.2 1853:0.125 1854:1.0 1855:1.0 1856:0.333333 1857:1.0 1858:0.25 1859:0.5 1860:1.0 1861:0.166667 1862:1.0 1863:0.5 1864:1.0 1865:0.1 1866:0.333333 1867:0.333333 1868:1.0 1869:0.333333 1870:0.5 1871:1.0 1872:1.0 1873:1.0 1874:0.125 1875:0.2 1876:0.0833333 1877:0.111111 1878:0.0588235 1879:0.5 1880:0.0526316 1881:0.333333 1882:0.0357143 1883:0.5 1884:0.333333 1885:0.2 1886:1.0 1887:0.5 1888:0.166667 1889:0.166667 1890:0.1 1891:0.2 1892:0.666667 1893:1.0 1894:0.0588235 1895:0.0555556 1896:0.142857 1897:0.333333 1898:1.0 1899:0.0769231 1900:1.0 1901:0.0909091 1902:1.0 1903:1.0 1904:0.333333 1905:0.333333 1906:1.0 1907:0.5 1908:1.0 1909:0.142857 1910:0.1 1911:1.0 1912:1.0 1913:1.0 1914:1.0 1915:0.333333 1916:1.0 1917:0.333333 1918:0.5 1919:0.2 1920:0.08 1921:1.0 1922:1.0 1923:1.0 1924:1.0 1925:0.0909091 1926:1.0 1927:1.0 1928:1.0 1929:0.666667 1930:0.333333 1931:1.0 1932:0.5 1933:0.25 1934:0.166667 1935:1.0 1936:1.0 1937:0.142857 1938:0.0833333 1939:0.5 1940:0.333333 1941:1.0 1942:1.0 1943:0.2 1944:0.0909091 1945:0.0769231 1946:1.0 1947:0.0625 1948:0.2 1949:0.5 1950:1.0 1951:0.5 1952:0.25 1953:1.0 1954:1.0 1955:0.0588235 1956:0.333333 1957:1.0 1958:0.0135747 1959:0.166667 1960:1.0 1961:1.0 1962:1.0 1963:0.333333 1964:0.333333 1965:0.5 1966:0.25 1967:1.0 1968:1.0 1969:0.142857 1970:0.0909091 1971:0.0769231 1972:0.25 1973:1.0 1974:0.5 1975:1.0 1976:0.153846 1977:1.0 1978:0.5 1979:0.333333 1980:1.0 1981:0.5 1982:0.333333 1983:1.0 1984:0.5 1985:1.0 1986:0.1 1987:1.0 1988:1.0 1989:0.111111 1990:1.0 1991:0.2 1992:0.030303 1993:1.0 1994:0.0120482 1995:0.5 1996:0.0769231 1997:0.333333 1998:1.0 1999:1.0 2000:0.0434783 2001:1.0 2002:0.125 2003:1.0 2004:0.5 2005:0.2 2006:1.0 2007:1.0 2008:0.333333 2009:0.0588235 2010:1.0 2011:1.0 2012:1.0 2013:1.0 2014:0.5 2015:1.0 2016:0.0833333 2017:1.0 2018:0.25 2019:0.5 2020:1.0 2021:0.1 2022:1.0 2023:1.0 2024:1.0 2025:0.25 2026:0.5 2027:1.0 2028:1.0 2029:0.0588235 2030:0.5 2031:0.166667 2032:0.2 2033:0.0285714 2034:0.333333 2035:0.333333 2036:0.166667 2037:1.0 2038:0.0322581 2039:1.0 2040:0.5 2041:1.0 2042:0.333333 2043:1.0 2044:1.0 2045:1.0 2046:1.0 2047:1.0 2048:1.0 2049:0.333333 2050:1.0 2051:1.0 2052:0.0196078 2053:0.0163934 2054:0.0555556 2055:0.5 2056:1.0 2057:0.0833333 2058:1.0 2059:1.0 2060:0.1 2061:0.6 2062:1.0 2063:1.0 2064:0.0769231 2065:0.0588235 2066:0.0526316 2067:0.0714286 2068:0.333333 2069:0.125 2070:0.333333 
15.911972218388888 1:0.25 2:0.333333 3:0.321429 4:0.25 5:0.241379 13:0.0132159 14:0.0212766 16:0.146341 23:0.142857 34:0.0555556 36:0.0689655 37:0.05 38:0.130435 39:0.151515 40:0.0384615 49:0.272727 53:0.5 54:0.166667 55:0.166667 56:0.0769231 58:1.0 59:0.08 64:0.111111 80:0.027027 81:0.5 86:0.0277778 91:0.214286 96:0.3 103:0.125 108:0.2 109:0.0555556 110:0.0909091 111:0.266667 112:0.047619 123:0.970588 139:0.0769231 141:0.0769231 147:0.32 148:0.0909091 162:0.333333 163:0.5 167:0.125 168:0.212121 171:0.0588235 172:0.333333 173:0.333333 175:0.0333333 181:0.047619 187:0.285714 190:0.162162 193:0.2 204:0.196078 206:0.166667 207:0.0833333 218:0.0204082 236:0.0833333 237:1.0 242:0.586207 243:0.142857 246:0.25 247:0.0145985 255:0.0454545 258:0.25 261:0.0606061 262:0.333333 263:0.0357143 271:0.285714 290:0.333333 309:0.0769231 314:0.3 318:0.0384615 319:0.0178571 325:0.333333 326:0.2 333:0.115385 337:0.111111 339:0.285714 352:0.125 361:0.875 363:0.333333 364:0.0625 367:0.0425532 368:0.0555556 373:0.0166667 385:0.08 387:1.0 393:0.569892 399:0.625 401:0.142857 420:0.0357143 437:0.2 438:0.5 469:0.2 470:0.0909091 493:0.128205 499:0.0526316 500:0.0172414 530:0.258065 533:0.769231 536:0.0126582 537:0.0416667 548:0.125 550:0.153846 551:0.142857 553:0.0571429 563:0.0769231 567:0.142857 568:0.222222 569:0.0416667 572:0.428571 576:0.3125 589:0.0434783 607:0.153846 608:0.0714286 621:0.0208333 640:0.1 665:0.181818 671:0.2 672:0.25 690:0.111111 693:0.0512821 696:0.0172414 697:0.05 698:0.111111 703:0.15493 705:0.0344828 706:0.0188679 709:0.285714 724:0.25 736:0.230769 768:1.0 788:0.333333 789:0.4 806:0.0384615 835:0.104265 837:0.0344828 841:0.2 867:0.5 1006:0.0769231 1038:0.138889 1043:0.0263158 1093:0.0769231 1115:0.0238095 1149:0.428571 1179:0.5 1197:0.206897 1199:0.2 1212:0.1 1288:0.0714286 1289:0.0769231 1307:0.0333333 1319:1.0 1323:0.166667 1328:0.00925926 1329:0.00925926 1402:0.142857 1441:0.0642202 1451:0.5 1470:0.846154 1489:0.027027 1490:0.05 1502:0.0571429 1510:0.2 1511:0.285714 1536:0.0230769 1565:0.25 1576:0.4 1578:0.142857 1583:0.2 1599:0.166667 1656:0.05 1665:1.0 1704:0.4 1719:0.0769231 1844:0.2 1845:0.2 1861:0.166667 1885:0.2 1979:0.333333 1996:0.0769231 2067:0.428571 2071:1.0 2072:0.692308 2073:0.333333 2074:0.714286 2075:1.0 2076:1.0 2077:1.0 2078:0.0444444 2079:0.0444444 2080:0.888889 2081:1.0 2082:0.0487805 2083:0.05 2084:0.0434783 2085:0.0333333 2086:1.0 2087:1.0 2088:0.166667 2089:0.428571 2090:0.285714 2091:0.461538 2092:0.117647 2093:0.247191 2094:0.333333 2095:0.333333 2096:1.0 2097:1.0 2098:0.166667 2099:1.0 2100:1.0 2101:1.0 2102:1.0 2103:1.0 2104:1.0 2105:1.0 2106:0.444444 2107:1.0 2108:1.0 2109:1.0 2110:1.0 2111:0.291667 2112:0.25 2113:1.0 2114:1.0 2115:0.333333 2116:1.0 2117:1.0 2118:0.875 2119:1.0 2120:1.0 2121:0.25 2122:1.0 2123:0.0909091 2124:1.0 2125:0.2 2126:1.0 2127:0.130435 2128:0.333333 2129:0.75 2130:1.0 2131:0.2 2132:0.0833333 2133:1.0 2134:0.5 2135:1.0 2136:0.153846 2137:1.0 2138:0.5 2139:0.0769231 2140:0.0769231 2141:1.0 2142:0.666667 2143:0.166667 2144:0.25 2145:0.1 2146:1.0 2147:1.0 2148:1.0 2149:0.333333 2150:0.0857143 2151:1.0 2152:0.0769231 2153:0.5 2154:1.0 2155:1.0 2156:0.25 2157:0.2 2158:0.5 2159:0.0140845 2160:0.25 2161:1.0 2162:0.5 2163:0.2 2164:0.166667 2165:0.047619 2166:0.4 2167:0.5 2168:0.0416667 2169:0.125 2170:0.2 2171:0.25 2172:0.047619 2173:0.0555556 2174:0.0434783 2175:0.0131579 2176:0.333333 2177:1.0 2178:0.0833333 2179:0.166667 2180:1.0 2181:0.0909091 2182:0.25 2183:1.0 2184:0.0120482 2185:0.0833333 2186:0.333333 2187:1.0 2188:0.125 2189:0.25 2190:1.0 2191:1.0 2192:0.0909091 2193:0.166667 2194:0.666667 2195:0.5 2196:1.0 2197:0.153846 2198:1.0 2199:1.0 2200:0.5 2201:0.357143 2202:0.176471 2203:1.0 2204:1.0 2205:1.0 2206:0.2 2207:1.0 2208:0.125 2209:0.0119048 2210:0.0769231 2211:0.0454545 2212:0.0212766 2213:1.0 2214:0.0163934 2215:0.25 2216:1.0 2217:1.0 2218:0.75 2219:1.0 2220:0.5 2221:0.25 2222:0.15 2223:1.0 2224:0.5 2225:0.125 2226:0.0714286 2227:1.0 2228:1.0 2229:0.0434783 2230:0.0555556 2231:1.0 2232:0.333333 2233:0.75 2234:0.2 2235:0.0967742 2236:1.0 2237:1.0 2238:1.0 2239:1.0 2240:0.285714 2241:0.4 2242:0.153846 2243:1.0 2244:1.0 2245:0.5 2246:1.0 2247:1.0 2248:0.333333 2249:1.0 2250:0.0416667 2251:1.0 2252:0.25 2253:0.5 2254:0.2 2255:0.1 2256:1.0 2257:0.00847458 2258:0.0909091 2259:0.2 2260:0.0165746 2261:0.0147059 2262:0.2 2263:1.0 2264:0.142857 2265:0.5 2266:1.0 2267:0.5 2268:1.0 2269:1.0 2270:1.0 2271:0.2 2272:0.5 2273:1.0 2274:1.0 2275:0.166667 2276:0.0175439 2277:1.0 2278:1.0 2279:0.333333 2280:0.142857 2281:0.03125 2282:0.125 2283:0.0588235 2284:1.0 2285:0.333333 2286:0.5 2287:1.0 2288:1.0 2289:0.25 2290:0.0714286 
8.471462767568692 1:0.0416667 5:0.0344828 16:0.0731707 22:0.115942 23:0.015873 48:0.0222222 58:1.0 59:0.04 70:0.0192308 91:0.0714286 93:0.142857 137:0.0952381 141:0.025641 151:0.0526316 162:0.333333 218:0.0204082 242:0.0344828 281:0.05 319:0.0357143 322:0.0625 348:0.0666667 373:0.0166667 381:0.0238095 390:0.05 470:0.0454545 482:0.0227273 500:0.0172414 501:0.0555556 514:0.0105263 515:0.5 516:0.1 549:0.125 565:0.0833333 569:0.0416667 640:0.1 681:0.0909091 687:0.0833333 706:0.0188679 747:0.0416667 753:0.0833333 764:0.388889 768:0.0208333 774:0.125 837:0.172414 851:0.25 875:0.0454545 886:0.1 890:0.426471 894:0.112903 902:0.0333333 911:0.0227273 917:0.0444444 922:0.368421 923:0.25 926:0.533333 928:0.777778 944:0.0769231 945:0.111111 953:0.0708661 956:0.0107527 957:0.0638298 960:0.111111 967:0.1 968:0.114286 969:0.0333333 975:0.588235 977:0.0588235 989:0.121951 994:0.0136986 995:0.037037 996:0.14 1038:0.0138889 1052:0.166667 1134:0.5 1164:0.2 1174:0.0833333 1197:0.103448 1206:0.047619 1210:0.0769231 1326:0.0625 1437:0.027027 1492:0.0196078 1565:0.25 1583:0.2 1693:0.2 1724:0.0588235 1756:0.05 1797:0.111111 1881:0.166667 1994:0.0120482 2065:0.0588235 2069:0.125 2093:0.00561798 2103:0.0192308 2184:0.060241 2197:0.0384615 2211:0.0681818 2221:0.125 2222:0.05 2235:0.0322581 2257:0.0254237 2291:0.225806 2292:0.295455 2293:0.2 2294:0.223301 2295:0.0479452 2296:0.3125 2297:1.0 2298:1.0 2299:0.0559006 2300:1.0 2301:1.0 2302:0.52 2303:0.391892 2304:0.545455 2305:0.425 2306:0.909091 2307:1.0 2308:0.714286 2309:0.769231 2310:0.2 2311:0.0151515 2312:1.0 2313:1.0 2314:1.0 2315:1.0 2316:1.0 2317:0.129032 2318:0.4 2319:0.117647 2320:0.0410959 2321:0.5 2322:0.0454545 2323:0.037037 2324:0.0526316 2325:0.25 2326:0.2 2327:0.333333 2328:0.2 2329:0.128205 2330:0.777778 2331:0.8 2332:0.333333 2333:1.0 2334:0.294118 2335:0.354839 2336:0.40625 2337:1.0 2338:0.0833333 2339:0.0465116 2340:0.111111 2341:0.3125 2342:0.151515 2343:0.5 2344:0.666667 2345:0.385965 2346:0.625 2347:0.214286 2348:0.0666667 2349:0.194444 2350:0.0769231 2351:0.166667 2352:0.666667 2353:0.142857 2354:0.2 2355:0.12 2356:0.315789 2357:0.133333 2358:1.0 2359:1.0 2360:0.08 2361:0.5 2362:0.125 2363:0.0289855 2364:0.555556 2365:1.0 2366:1.0 2367:1.0 2368:0.125 2369:1.0 2370:0.263158 2371:0.189189 2372:0.142857 2373:0.142857 2374:0.555556 2375:0.133333 2376:0.257143 2377:0.35 2378:0.166667 2379:1.0 2380:0.625 2381:0.177778 2382:0.125 2383:0.176471 2384:0.545455 2385:0.192308 2386:0.2 2387:0.166667 2388:1.0 2389:0.327273 2390:0.5 2391:0.142857 2392:0.5 2393:0.2 2394:0.25 2395:0.2 2396:0.2 2397:0.5 2398:0.037037 2399:0.25 2400:0.2 2401:0.0344828 2402:0.0555556 2403:0.0526316 2404:0.0909091 2405:0.2 2406:0.0277778 2407:0.0125 2408:0.0322581 2409:0.0666667 2410:0.2 2411:0.047619 2412:0.0188679 2413:0.0454545 2414:0.0344828 2415:0.111111 2416:0.0666667 2417:0.25 2418:0.25 2419:0.0967742 2420:0.03125 2421:0.125 2422:0.0666667 2423:0.0344828 2424:0.04 2425:0.0833333 2426:1.0 2427:0.147059 2428:0.0151515 2429:0.166667 2430:0.0441176 2431:0.0222222 2432:0.0350877 2433:0.111111 2434:0.027027 2435:0.2 2436:0.0126582 2437:0.125 2438:0.5 2439:0.142857 2440:0.1 2441:0.0793651 2442:0.125 2443:0.0555556 2444:0.038835 2445:0.5 2446:0.142857 2447:0.0425532 2448:0.117647 2449:0.1 2450:0.05 2451:0.142857 2452:0.333333 2453:0.24 2454:0.0322581 2455:0.0273973 2456:0.0588235 2457:0.0454545 2458:0.0232558 2459:0.142857 2460:0.0983607 2461:0.228571 2462:0.2 2463:0.272727 2464:0.0384615 2465:0.0769231 2466:0.0227273 2467:0.2 2468:1.0 2469:0.0769231 2470:0.0434783 2471:1.0 2472:0.0212766 2473:0.117647 2474:1.0 2475:0.333333 2476:1.0 2477:0.2 2478:0.2 2479:0.571429 2480:0.176471 2481:0.666667 2482:0.375 2483:1.0 2484:1.0 2485:1.0 2486:0.133333 2487:0.0909091 2488:0.107143 2489:0.0357143 2490:1.0 2491:0.0909091 2492:0.0833333 2493:0.315789 2494:0.027027 2495:0.142857 2496:1.0 2497:0.263158 2498:0.0655738 2499:0.310345 2500:0.333333 2501:0.2 2502:0.5 2503:1.0 2504:0.227273 2505:0.5 2506:1.0 2507:1.0 2508:0.142857 2509:0.181818 2510:0.0294118 2511:0.0576923 2512:0.037037 2513:0.666667 2514:0.107143 2515:0.2 2516:1.0 2517:1.0 2518:1.0 2519:0.0185185 2520:0.111111 2521:0.28125 2522:0.0833333 2523:1.0 2524:0.0181818 2525:0.133333 2526:0.5 2527:1.0 2528:0.5 2529:0.636364 2530:0.0769231 2531:0.0555556 2532:0.0833333 2533:0.0357143 2534:0.5 2535:0.047619 2536:1.0 2537:0.166667 2538:0.04 2539:0.333333 2540:0.119048 2541:0.75 2542:0.333333 2543:0.0333333 2544:0.0909091 2545:0.0769231 2546:0.04 2547:0.0508475 2548:0.010989 2549:0.333333 2550:0.222222 2551:0.142857 2552:0.0714286 2553:1.0 2554:0.111111 2555:1.0 2556:1.0 2557:0.24 2558:0.153846 2559:0.03125 2560:0.5 2561:0.0714286 2562:0.111111 2563:0.333333 2564:0.142857 2565:0.037037 2566:0.0243902 2567:0.0512821 2568:0.2 2569:0.0322581 2570:1.0 2571:0.5 2572:1.0 2573:1.0 2574:0.0769231 2575:0.0555556 2576:0.0714286 2577:0.0897436 2578:0.5 2579:0.0769231 2580:1.0 2581:0.0666667 2582:0.166667 2583:0.166667 2584:0.368421 2585:0.0555556 2586:0.714286 2587:0.166667 2588:1.0 2589:0.12 2590:0.0588235 2591:0.272727 2592:0.15 2593:0.166667 2594:0.1 2595:0.0555556 2596:0.125 2597:1.0 2598:0.111111 2599:0.0263158 2600:0.333333 2601:0.1 2602:1.0 2603:0.222222 2604:0.111111 2605:0.0769231 2606:0.230769 2607:0.230769 2608:1.0 2609:0.625 2610:0.363636 2611:1.0 2612:1.0 2613:0.125 2614:0.0833333 2615:0.333333 2616:1.0 2617:1.0 2618:1.0 2619:0.0625 2620:0.0322581 2621:0.0833333 2622:0.0714286 2623:0.6 2624:0.4 2625:0.047619 2626:0.5 2627:1.0 2628:1.0 2629:0.0581395 2630:0.666667 2631:0.5 2632:0.25 2633:0.0192308 2634:0.2 2635:0.2 2636:1.0 2637:0.0625 2638:1.0 2639:0.2 2640:0.00613497 2641:0.047619 2642:0.142857 2643:0.03125 2644:0.0487805 2645:0.0769231 2646:0.166667 2647:0.0294118 2648:0.037037 2649:1.0 2650:0.0540541 2651:0.0526316 2652:0.008 2653:0.0192308 2654:0.5 2655:0.0833333 2656:0.333333 2657:0.0138889 2658:1.0 2659:0.0555556 2660:0.0416667 2661:1.0 2662:0.0434783 2663:0.0625 2664:1.0 2665:0.015873 2666:0.0163934 2667:1.0 2668:1.0 2669:1.0 2670:1.0 2671:0.2 2672:0.0232558 2673:0.115385 2674:0.111111 2675:0.111111 2676:0.097561 2677:0.134615 2678:0.0416667 2679:0.153846 2680:0.333333 2681:1.0 2682:0.0540541 2683:0.4 2684:1.0 2685:0.2 2686:0.142857 2687:0.0444444 2688:0.25 2689:0.5 2690:0.0285714 2691:0.4 2692:0.166667 2693:0.0454545 2694:0.1 2695:0.111111 2696:0.333333 2697:0.166667 2698:0.1 2699:0.5 2700:0.0526316 2701:0.0625 2702:0.0416667 2703:0.111111 2704:1.0 2705:1.0 2706:0.214286 2707:0.230769 2708:0.416667 2709:0.0222222 2710:0.0466102 2711:1.0 2712:1.0 2713:0.285714 2714:1.0 2715:1.0 2716:0.0552764 2717:0.5 2718:0.2 2719:1.0 2720:1.0 2721:0.027027 2722:0.375 2723:0.119658 2724:1.0 2725:0.166667 2726:0.130435 2727:0.142857 2728:0.08 2729:1.0 2730:1.0 2731:1.0 2732:0.0119048 2733:0.333333 2734:1.0 2735:0.047619 2736:0.333333 2737:1.0 2738:0.142857 2739:1.0 2740:0.333333 2741:1.0 2742:1.0 2743:0.130435 2744:0.0769231 2745:0.2 2746:0.142857 2747:1.0 2748:1.0 2749:0.5 2750:0.333333 2751:0.333333 2752:1.0 2753:0.333333 2754:1.0 2755:0.2 2756:1.0 2757:0.166667 2758:1.0 2759:0.047619 2760:1.0 2761:1.0 2762:1.0 2763:1.0 2764:1.0 2765:0.333333 2766:1.0 2767:0.0833333 2768:1.0 2769:1.0 2770:0.5 2771:0.0588235 2772:0.111111 2773:0.1 2774:1.0 2775:0.5 2776:0.0357143 2777:0.0909091 2778:1.0 2779:0.333333 2780:0.0153846 2781:0.0769231 2782:0.25 2783:0.5 2784:0.4 2785:1.0 2786:0.0357143 2787:0.107143 2788:1.0 2789:0.2 2790:0.333333 2791:0.25 2792:0.333333 2793:0.166667 2794:0.0666667 2795:0.5 2796:1.0 2797:0.5 2798:0.142857 2799:0.02 2800:0.5 2801:0.5 2802:0.833333 2803:0.5 2804:0.5 2805:1.0 2806:0.571429 2807:0.0909091 2808:1.0 2809:0.5 2810:0.25 2811:0.25 2812:1.0 2813:0.5 2814:1.0 2815:0.25 2816:0.5 2817:0.5 2818:1.0 2819:0.012987 2820:0.1 2821:0.666667 2822:0.25 2823:0.0769231 2824:0.111111 2825:0.5 2826:0.166667 2827:1.0 2828:0.0909091 2829:1.0 2830:0.5 2831:0.25 2832:0.2 2833:0.25 2834:0.5 2835:0.153846 2836:0.5 2837:1.0 2838:0.333333 2839:0.125 2840:0.0909091 2841:1.0 2842:1.0 2843:0.333333 2844:1.0 2845:0.25 2846:0.2 2847:1.0 2848:1.0 
11.359442274871991 1:0.0416667 13:0.0132159 22:0.0144928 24:0.1875 30:0.0111111 40:0.0576923 46:0.00900901 57:1.0 58:1.0 63:0.111111 66:0.315789 73:0.0163934 77:0.0102041 96:0.0333333 112:0.047619 137:0.047619 162:0.333333 175:0.0333333 184:0.04 263:0.0357143 264:0.0416667 352:0.125 381:0.0238095 393:0.0107527 428:0.333333 447:0.166667 470:0.0681818 475:0.333333 481:0.2 495:0.25 514:0.0526316 539:0.5 565:0.0833333 619:0.166667 621:0.0208333 698:0.111111 768:0.0208333 835:0.028436 852:0.5 888:0.0357143 894:0.370968 901:0.0821918 902:0.0333333 911:0.0681818 912:0.222222 920:0.333333 922:0.736842 923:0.5 936:0.047619 953:0.015748 955:0.027027 956:0.0645161 957:0.212766 958:0.212121 967:0.1 977:0.0294118 982:0.111111 994:0.0273973 995:0.037037 998:0.125 1009:0.027027 1011:0.125 1087:0.0117647 1132:0.037037 1592:1.0 1785:0.222222 1797:0.111111 1920:0.04 1982:0.333333 2082:0.0243902 2165:0.047619 2211:0.113636 2291:0.451613 2292:0.636364 2293:0.65 2294:0.184466 2295:0.10274 2296:0.015625 2299:0.068323 2317:0.0967742 2318:0.1 2319:0.235294 2320:1.0 2324:0.0526316 2325:1.0 2326:0.2 2327:0.333333 2328:0.2 2329:0.205128 2332:0.111111 2338:0.333333 2342:0.151515 2349:0.305556 2350:0.692308 2354:0.133333 2355:0.08 2357:0.0222222 2373:0.0952381 2375:0.1 2380:0.125 2381:0.0222222 2386:0.2 2387:0.166667 2388:1.0 2391:0.142857 2392:0.5 2393:0.2 2401:0.172414 2406:0.037037 2407:0.0375 2408:0.0967742 2409:0.133333 2413:0.0909091 2416:0.133333 2417:0.25 2418:0.25 2419:0.0645161 2421:0.075 2430:0.0588235 2431:0.0444444 2432:0.140351 2437:1.0 2440:0.1 2451:0.571429 2452:0.333333 2453:0.48 2454:0.0967742 2459:0.285714 2460:0.180328 2461:0.0571429 2462:0.375 2463:0.545455 2464:0.0384615 2466:0.0454545 2467:0.2 2470:0.173913 2486:0.0666667 2487:0.0909091 2491:0.121212 2492:0.0166667 2496:0.166667 2497:0.105263 2509:1.0 2522:0.666667 2524:0.2 2530:0.307692 2531:1.0 2532:0.416667 2533:0.0714286 2535:1.0 2538:0.08 2540:0.047619 2548:0.032967 2558:0.192308 2561:0.142857 2567:0.692308 2571:1.0 2577:0.0384615 2579:0.384615 2582:0.333333 2583:0.1 2584:0.526316 2589:0.04 2590:0.0196078 2601:0.1 2609:0.125 2632:0.25 2633:0.0192308 2635:0.2 2647:0.0294118 2650:0.135135 2653:0.211538 2660:0.0208333 2663:0.5625 2676:0.0487805 2680:0.166667 2682:0.135135 2683:0.6 2686:0.0714286 2688:0.75 2690:0.0571429 2692:0.166667 2700:0.0526316 2702:0.208333 2703:0.555556 2709:0.0166667 2710:0.0423729 2716:0.0351759 2723:0.0512821 2738:0.142857 2743:0.130435 2771:0.0588235 2776:0.0357143 2781:0.0769231 2795:0.5 2798:0.0714286 2810:0.25 2835:0.153846 2843:0.333333 2845:0.25 2846:0.2 2849:1.0 2850:1.0 2851:1.0 2852:1.0 2853:1.0 2854:0.333333 2855:0.333333 2856:0.666667 2857:1.0 2858:1.0 2859:1.0 2860:0.0555556 2861:0.0731707 2862:0.4 2863:0.0833333 2864:0.333333 2865:1.0 2866:0.0526316 2867:1.0 2868:0.4 2869:0.258621 2870:0.0487805 2871:0.1 2872:0.15 2873:0.545455 2874:1.0 2875:0.0185185 2876:1.0 2877:1.0 2878:0.75 2879:0.0735294 2880:1.0 2881:0.357143 2882:0.117647 2883:0.166667 2884:1.0 2885:0.0714286 2886:0.285714 2887:0.166667 2888:1.0 2889:1.0 2890:1.0 2891:0.692308 2892:1.0 2893:1.0 2894:0.333333 2895:0.571429 2896:0.2 2897:0.8 2898:1.0 2899:0.75 2900:0.1 2901:1.0 2902:0.5 2903:0.166667 2904:0.153846 2905:1.0 2906:0.333333 2907:0.0606061 2908:0.363636 2909:0.5 2910:0.037037 2911:0.117647 2912:0.0606061 2913:0.272727 2914:0.142857 2915:0.5 2916:0.333333 2917:0.021978 2918:0.176471 2919:0.030303 2920:0.5 2921:0.4 2922:0.04 2923:0.0263158 2924:1.0 2925:0.0526316 2926:0.142857 2927:1.0 2928:0.037037 2929:0.222222 2930:0.0625 2931:0.1 2932:0.142857 2933:0.0666667 2934:0.037037 2935:0.0114943 2936:1.0 2937:0.125 2938:0.04 2939:0.0232558 2940:0.1 2941:0.0277778 2942:1.0 2943:0.0434783 2944:0.545455 2945:0.0114286 2946:1.0 2947:0.0485437 2948:0.333333 2949:0.26087 2950:0.25 2951:0.142857 2952:0.0454545 2953:0.4 2954:0.0909091 2955:0.0952381 2956:0.0103093 2957:1.0 2958:0.8 2959:0.333333 2960:0.2 2961:0.111111 2962:1.0 2963:1.0 2964:0.166667 2965:0.222222 2966:1.0 2967:0.0952381 2968:0.117647 2969:0.1 2970:0.2 2971:0.0344828 2972:0.142857 2973:1.0 2974:0.375 2975:0.5 2976:0.4 2977:0.0689655 2978:1.0 2979:1.0 2980:0.333333 2981:0.047619 2982:0.375 2983:0.5 2984:1.0 2985:0.666667 2986:0.157895 2987:0.025 2988:0.166667 2989:0.026455 2990:0.333333 2991:0.166667 2992:0.0294118 2993:0.25 2994:0.0344828 2995:0.0909091 2996:0.0909091 2997:0.2 2998:1.0 2999:0.148936 3000:0.0188679 3001:0.166667 3002:0.0588235 3003:0.25 3004:0.0645161 3005:0.666667 3006:0.2 3007:0.333333 3008:0.166667 3009:0.2 3010:0.0666667 3011:1.0 3012:0.03125 3013:1.0 3014:1.0 3015:0.666667 3016:1.0 3017:0.125 3018:0.04 3019:0.0588235 3020:0.0769231 3021:0.5 3022:0.5 3023:0.0555556 3024:0.166667 3025:0.111111 3026:0.0588235 3027:0.5 3028:0.0714286 3029:0.0277778 3030:0.2 3031:0.4 3032:1.0 3033:0.166667 3034:0.333333 3035:0.2 3036:0.117647 3037:1.0 3038:0.181818 3039:0.2 3040:0.444444 3041:0.2 3042:0.0227273 3043:0.176471 3044:1.0 3045:1.0 3046:0.142857 3047:0.5 3048:0.05 3049:0.0625 3050:0.0114943 3051:0.2 3052:0.5 3053:1.0 3054:0.0714286 3055:0.0434783 3056:0.0645161 3057:1.0 3058:0.238095 3059:1.0 3060:0.0869565 3061:0.833333 3062:0.25 3063:0.166667 3064:0.285714 3065:0.0833333 3066:0.0416667 3067:0.0833333 3068:0.1 3069:0.25 3070:0.166667 3071:0.0344828 3072:0.0625 3073:0.2 3074:0.478261 3075:0.5 3076:0.181818 3077:0.1 3078:1.0 3079:0.208333 3080:0.5 3081:0.0625 3082:0.333333 3083:0.2 3084:1.0 3085:1.0 3086:1.0 3087:0.0357143 3088:0.333333 3089:1.0 3090:0.111111 3091:1.0 3092:0.5 3093:1.0 3094:1.0 3095:1.0 3096:0.111111 3097:0.333333 3098:1.0 3099:0.111111 3100:0.25 3101:1.0 3102:0.2 3103:0.0666667 3104:0.142857 3105:0.166667 3106:1.0 3107:0.4 3108:0.125 3109:1.0 3110:0.0606061 3111:0.1 3112:0.0285714 3113:0.0625 3114:0.0222222 3115:1.0 3116:0.1 3117:0.333333 3118:0.2 3119:0.166667 3120:0.25 3121:0.2 3122:0.125 3123:0.1 3124:1.0 3125:0.0714286 3126:0.166667 3127:1.0 3128:1.0 3129:0.375 3130:1.0 3131:0.0434783 3132:0.5 3133:0.2 3134:1.0 3135:0.25 3136:1.0 3137:0.5 3138:1.0 3139:1.0 3140:0.333333 3141:1.0 3142:0.166667 3143:0.333333 3144:0.5 3145:0.0909091 3146:1.0 3147:0.714286 3148:0.333333 3149:0.333333 3150:0.333333 3151:0.875 3152:1.0 3153:1.0 3154:1.0 3155:1.0 3156:0.121212 3157:1.0 3158:1.0 3159:1.0 3160:1.0 3161:0.015625 3162:1.0 3163:1.0 3164:0.25 3165:0.166667 3166:1.0 3167:1.0 3168:0.5 3169:0.5 3170:0.0434783 3171:0.2 3172:0.0526316 3173:0.0322581 3174:0.166667 3175:0.037037 3176:1.0 3177:0.0555556 3178:0.333333 3179:1.0 3180:1.0 3181:0.333333 3182:0.0153846 3183:0.0212766 3184:0.5 3185:1.0 3186:1.0 3187:0.0454545 3188:0.125 3189:1.0 3190:0.428571 3191:1.0 3192:0.0147059 3193:1.0 3194:1.0 3195:0.0588235 3196:1.0 3197:1.0 3198:0.25 3199:0.166667 3200:0.25 3201:0.0769231 3202:1.0 3203:1.0 3204:1.0 3205:0.333333 3206:1.0 3207:0.25 3208:1.0 3209:0.5 3210:0.142857 3211:0.25 3212:1.0 3213:0.5 3214:0.25 3215:0.5 3216:1.0 3217:0.0526316 3218:0.5 3219:0.00671141 3220:0.333333 3221:1.0 
0.6566561264834037 1:0.291667 3:0.392857 4:0.416667 5:0.37931 7:0.046875 13:0.061674 23:0.015873 24:0.25 25:0.0454545 26:0.210526 27:0.0540541 29:0.153846 30:0.0333333 33:0.037037 36:0.413793 40:0.0576923 47:0.166667 53:0.333333 54:0.166667 55:0.166667 56:0.0769231 62:0.142857 63:0.333333 66:0.421053 67:0.025 69:0.166667 70:0.0576923 73:0.0491803 77:0.0204082 80:0.297297 82:0.02 83:0.142857 85:0.0217391 86:0.0277778 87:0.0714286 91:0.0714286 92:0.04 93:0.285714 95:0.2 96:0.8 103:0.125 106:0.0285714 109:0.0555556 110:0.121212 111:0.3 112:0.0952381 116:0.1 118:1.0 121:0.5 128:1.0 137:0.428571 139:0.153846 141:0.435897 147:0.24 148:0.151515 151:0.0526316 159:0.037037 160:0.111111 162:0.333333 168:0.272727 171:0.117647 172:0.333333 173:0.333333 175:0.1 190:0.189189 193:0.0666667 198:0.25 199:0.333333 200:1.0 202:0.0243902 203:0.0833333 204:0.0196078 207:0.0833333 210:0.166667 213:0.5 214:0.121951 230:0.0526316 234:0.0555556 235:0.3 236:0.0833333 241:0.133333 255:0.409091 258:0.5 259:0.0833333 261:0.030303 263:0.0357143 264:0.0416667 271:0.464286 279:0.166667 285:0.615385 295:0.0714286 297:0.025 303:0.2 306:0.153846 307:0.235294 308:0.0263158 309:0.230769 312:0.0344828 314:0.4 319:0.0892857 322:0.125 326:0.2 331:0.292308 337:0.666667 345:0.142857 352:0.375 356:0.142857 358:1.0 364:0.1875 367:0.0212766 372:0.275862 373:0.166667 374:0.4 375:0.285714 377:0.0454545 379:0.586207 380:0.0608696 381:0.0238095 391:0.0188679 394:0.125 396:0.666667 401:0.285714 411:0.0153846 415:0.166667 420:0.0714286 428:0.666667 432:1.0 437:0.2 455:0.133333 461:0.0666667 470:0.0681818 475:0.333333 497:0.181818 499:0.0526316 501:0.166667 506:0.0666667 509:0.0175439 513:0.116279 514:0.0105263 525:0.375 527:0.333333 533:0.0384615 537:0.291667 564:0.132075 567:0.285714 568:0.0888889 569:0.208333 573:1.0 580:0.25 583:0.0721649 584:0.0555556 585:0.0588235 587:0.0384615 590:0.111111 592:0.0555556 593:0.4 597:0.3 604:0.047619 621:0.0208333 627:0.25 656:1.0 670:0.2 671:0.4 695:0.0909091 697:0.1 703:0.056338 709:0.714286 713:0.0666667 729:0.166667 740:0.166667 754:0.25 782:0.666667 789:0.4 807:0.111111 823:0.5 835:0.0189573 849:0.012987 850:0.0555556 886:0.2 890:0.0147059 908:0.039604 916:0.0833333 926:0.0333333 996:0.02 1010:0.111111 1015:1.0 1017:0.2 1018:0.5 1020:0.444444 1023:0.125 1029:0.181818 1030:0.222222 1032:0.166667 1034:0.538462 1037:0.423077 1041:0.142857 1043:0.0526316 1044:0.333333 1046:0.357143 1047:0.909091 1052:0.166667 1053:0.0133333 1063:0.25 1066:1.0 1074:0.333333 1075:1.0 1079:0.5 1087:0.0117647 1090:0.375 1091:0.307692 1092:0.333333 1093:0.0769231 1096:0.0909091 1097:0.166667 1099:0.105263 1104:0.266667 1106:0.5 1107:0.0952381 1111:0.0357143 1115:0.261905 1125:0.0634921 1126:0.285714 1130:0.181818 1132:0.111111 1133:0.333333 1142:0.111111 1149:0.285714 1156:1.0 1161:0.0454545 1191:0.0384615 1197:0.0344828 1199:0.6 1201:0.166667 1212:0.2 1222:0.0769231 1230:0.05 1238:0.466667 1254:0.25 1255:0.444444 1256:0.166667 1259:0.5 1263:0.0952381 1265:0.5 1267:0.571429 1268:1.0 1269:0.00877193 1282:1.0 1289:0.0769231 1293:0.0408163 1295:0.2 1300:0.0909091 1304:0.285714 1307:0.0333333 1309:0.25 1313:0.333333 1319:0.133333 1322:0.125 1326:0.3125 1328:0.00925926 1335:0.25 1337:0.5 1339:0.454545 1349:0.142857 1381:0.04 1383:0.75 1391:0.0338983 1393:0.111111 1402:0.142857 1403:1.0 1409:0.461538 1413:0.25 1426:1.0 1427:0.111111 1441:0.0183486 1453:0.666667 1468:0.4 1479:0.125 1482:0.4 1483:0.0212766 1489:0.0540541 1493:0.107143 1496:0.117647 1511:0.571429 1525:0.0681818 1532:0.0294118 1533:0.166667 1536:0.161538 1537:0.25 1538:0.0625 1540:0.333333 1541:0.25 1548:0.2 1552:0.166667 1554:0.2 1555:0.333333 1557:0.05 1558:0.25 1566:0.030303 1568:0.047619 1576:0.4 1578:0.142857 1581:0.0416667 1583:0.2 1585:0.0294118 1589:1.0 1594:0.0909091 1597:0.111111 1599:0.166667 1604:0.222222 1607:0.318182 1617:1.0 1626:0.136364 1633:0.583333 1634:0.625 1636:1.0 1657:0.0697674 1662:0.5 1666:1.0 1677:0.833333 1685:0.5 1688:0.5 1690:0.5 1697:0.25 1707:0.5 1712:0.0833333 1726:0.666667 1728:0.666667 1729:0.0447761 1739:0.411765 1740:0.222222 1741:0.25 1743:0.428571 1755:0.5 1757:0.222222 1758:1.0 1760:0.25 1761:0.5 1762:1.0 1764:1.0 1779:1.0 1780:0.5 1800:0.111111 1844:1.0 1845:1.0 1852:0.2 1853:0.0625 1861:0.333333 1880:0.105263 1893:0.333333 1899:0.0769231 1901:0.272727 1909:0.142857 1916:1.0 1920:0.04 1925:0.0909091 1938:0.25 1944:0.0909091 1945:0.0769231 1948:0.6 1956:0.333333 1961:1.0 1966:0.5 1996:0.0769231 2005:0.4 2014:0.5 2030:0.5 2032:0.2 2033:0.0571429 2036:1.0 2038:0.0322581 2049:1.0 2053:0.0163934 2064:0.307692 2065:0.294118 2067:0.0714286 2084:0.391304 2123:0.181818 2144:0.25 2150:0.0285714 2165:0.0952381 2178:1.0 2200:0.5 2201:0.214286 2202:0.176471 2206:0.2 2210:0.0769231 2221:0.25 2241:0.2 2252:0.25 2253:1.0 2258:1.0 2275:0.333333 2283:0.0588235 2340:0.111111 2574:0.0769231 2576:1.0 2642:0.285714 2748:1.0 2863:0.166667 2960:0.1 2977:0.137931 3062:1.0 3070:0.0555556 3214:1.0 3215:1.0 3217:0.0526316 3235:0.0188679 3387:0.2 3394:0.0833333 3407:0.5 3468:0.166667 3469:0.25 3487:0.0576923 3507:0.333333 3508:0.121951 3509:1.0 3510:1.0 3511:0.636364 3512:0.133333 3513:1.0 3514:1.0 3515:1.0 3516:1.0 3517:1.0 3518:0.333333 3519:0.0625 3520:0.421053 3521:0.0588235 3522:1.0 3523:0.0238095 3524:1.0 3525:0.0714286 3526:1.0 3527:0.047619 3528:0.125 3529:1.0 3530:1.0 3531:0.1 3532:1.0 3533:0.285714 3534:1.0 3535:0.333333 3536:0.4 3537:0.5 3538:0.571429 3539:0.666667 3540:1.0 3541:0.5 3542:0.2 3543:0.8 3544:1.0 3545:0.166667 3546:1.0 3547:0.333333 3548:1.0 3549:0.368421 3550:1.0 3551:1.0 3552:1.0 3553:1.0 3554:1.0 3555:1.0 3556:1.0 3557:0.0104167 3558:0.666667 3559:0.6 3560:1.0 3561:1.0 3562:0.333333 3563:0.363636 3564:1.0 3565:0.333333 3566:1.0 3567:0.5 3568:0.666667 3569:0.0555556 3570:1.0 3571:1.0 3572:1.0 3573:0.2 3574:0.2 3575:0.0566038 3576:1.0 3577:1.0 3578:0.272727 3579:1.0 3580:0.5 3581:1.0 3582:1.0 3583:1.0 3584:0.5 3585:0.666667 3586:0.666667 3587:1.0 3588:1.0 3589:1.0 3590:1.0 3591:1.0 3592:1.0 3593:0.25 3594:1.0 3595:0.692308 3596:0.5 3597:1.0 3598:1.0 3599:1.0 3600:0.5 3601:1.0 3602:1.0 3603:0.4 3604:0.333333 3605:0.6 3606:1.0 3607:1.0 3608:0.333333 3609:1.0 3610:1.0 3611:1.0 3612:1.0 3613:1.0 3614:1.0 3615:0.333333 3616:0.333333 3617:1.0 3618:1.0 3619:1.0 3620:0.25 3621:0.25 3622:1.0 3623:1.0 3624:1.0 3625:0.5 3626:1.0 3627:0.5 3628:1.0 3629:0.333333 3630:0.375 3631:0.5 3632:0.5 3633:1.0 3634:1.0 3635:1.0 3636:1.0 3637:1.0 3638:0.0512821 3639:0.666667 3640:0.111111 3641:1.0 3642:1.0 3643:1.0 3644:0.333333 3645:1.0 3646:0.0625 3647:1.0 3648:0.8 3649:1.0 3650:1.0 3651:0.111111 3652:0.25 3653:0.117647 3654:1.0 3655:0.333333 3656:1.0 3657:0.25 3658:1.0 3659:1.0 3660:1.0 3661:0.181818 3662:0.1 3663:0.5 3664:1.0 3665:1.0 3666:0.166667 3667:1.0 3668:0.25 3669:1.0 3670:0.153846 3671:1.0 3672:1.0 3673:1.0 3674:1.0 3675:0.5 3676:1.0 3677:0.25 3678:0.05 3679:1.0 3680:0.2 3681:0.0526316 3682:0.25 3683:1.0 3684:1.0 3685:0.166667 3686:0.125 3687:0.333333 3688:1.0 3689:0.5 3690:0.111111 3691:1.0 3692:0.142857 3693:1.0 3694:0.833333 3695:0.0714286 3696:1.0 3697:0.4 3698:0.2 3699:0.037037 3700:0.166667 3701:1.0 3702:1.0 3703:0.333333 3704:0.2 3705:1.0 3706:1.0 3707:0.5 3708:0.333333 3709:1.0 3710:1.0 3711:1.0 3712:1.0 3713:1.0 3714:1.0 3715:1.0 3716:0.5 3717:0.333333 3718:0.0416667 3719:0.4 3720:0.5 3721:1.0 3722:1.0 3723:1.0 3724:1.0 3725:1.0 3726:1.0 3727:1.0 3728:1.0 3729:1.0 3730:0.5 3731:1.0 3732:0.333333 3733:1.0 3734:1.0 3735:1.0 3736:1.0 3737:1.0 3738:1.0 3739:0.5 3740:0.0769231 3741:1.0 3742:0.5 3743:0.5 3744:0.125 3745:1.0 3746:1.0 3747:0.666667 3748:1.0 3749:1.0 3750:0.333333 3751:0.5 3752:1.0 3753:1.0 3754:1.0 3755:0.5 3756:1.0 3757:1.0 3758:0.0416667 3759:0.75 3760:1.0 3761:1.0 3762:1.0 3763:0.5 3764:1.0 3765:0.0769231 3766:1.0 3767:0.5 3768:1.0 3769:0.5 3770:0.166667 3771:1.0 3772:0.142857 3773:1.0 3774:1.0 3775:1.0 3776:0.25 3777:1.0 3778:0.333333 3779:1.0 3780:0.0434783 3781:0.3 3782:1.0 3783:0.153846 3784:1.0 3785:0.03125 3786:0.125 3787:1.0 3788:0.666667 3789:0.5 3790:0.666667 3791:0.142857 3792:1.0 3793:0.333333 3794:0.0625 3795:0.25 3796:1.0 3797:0.6 3798:0.1875 3799:1.0 3800:1.0 3801:0.282051 3802:1.0 3803:1.0 3804:1.0 3805:1.0 3806:0.04 3807:0.333333 3808:0.0125 3809:1.0 3810:1.0 3811:1.0 3812:1.0 3813:0.384615 3814:1.0 3815:0.466667 3816:1.0 3817:1.0 3818:0.5 3819:0.25 3820:1.0 3821:1.0 3822:0.25 3823:0.5 3824:0.5 3825:0.235294 3826:1.0 3827:1.0 3828:0.333333 3829:1.0 3830:1.0 3831:1.0 3832:1.0 3833:1.0 3834:1.0 3835:1.0 3836:1.0 3837:1.0 3838:1.0 3839:1.0 3840:0.333333 3841:1.0 3842:1.0 3843:1.0 3844:1.0 3845:0.5 3846:0.285714 3847:1.0 3848:1.0 3849:0.666667 3850:1.0 3851:0.5 3852:1.0 3853:0.166667 3854:1.0 3855:1.0 3856:1.0 3857:0.5 3858:0.666667 3859:0.333333 3860:0.333333 3861:1.0 3862:1.0 3863:1.0 3864:1.0 3865:0.5 3866:0.5 3867:1.0 3868:1.0 3869:1.0 3870:1.0 3871:1.0 3872:1.0 3873:0.5 3874:0.571429 3875:1.0 3876:1.0 3877:1.0 3878:1.0 3879:1.0 3880:1.0 3881:1.0 3882:0.5 3883:1.0 3884:1.0 3885:0.75 3886:1.0 3887:1.0 3888:1.0 3889:1.0 3890:0.5 3891:0.5 3892:0.5 3893:1.0 3894:1.0 3895:0.166667 3896:1.0 3897:1.0 3898:1.0 3899:0.166667 3900:0.0555556 3901:1.0 3902:1.0 3903:0.176471 3904:0.5 3905:1.0 3906:1.0 3907:1.0 3908:1.0 3909:1.0 3910:0.5 3911:0.166667 3912:1.0 3913:1.0 3914:1.0 3915:0.5 3916:0.875 3917:0.454545 3918:1.0 3919:0.5 3920:0.0833333 3921:1.0 3922:0.111111 3923:1.0 3924:0.888889 3925:1.0 3926:0.6 3927:1.0 3928:1.0 3929:0.285714 3930:1.0 3931:1.0 3932:1.0 3933:1.0 3934:1.0 3935:1.0 3936:0.105263 3937:1.0 3938:0.5 3939:0.2 3940:1.0 3941:0.285714 3942:1.0 3943:0.5 3944:1.0 3945:0.5 3946:1.0 3947:1.0 3948:1.0 3949:0.666667 3950:1.0 3951:0.0769231 3952:1.0 3953:0.08 3954:1.0 3955:1.0 3956:1.0 3957:0.230769 3958:0.333333 3959:1.0 3960:1.0 3961:0.5 3962:1.0 3963:0.5 3964:1.0 3965:1.0 3966:1.0 3967:1.0 3968:0.0740741 3969:1.0 3970:0.166667 3971:0.5 3972:0.5 3973:1.0 3974:1.0 3975:0.666667 3976:0.5 3977:1.0 3978:1.0 3979:1.0 3980:1.0 3981:1.0 3982:1.0 3983:1.0 3984:1.0 3985:1.0 3986:1.0 3987:1.0 3988:1.0 3989:1.0 3990:1.0 3991:1.0 3992:0.0909091 3993:0.5 3994:1.0 3995:1.0 3996:1.0 3997:1.0 3998:1.0 3999:0.111111 4000:1.0 4001:1.0 4002:1.0 4003:1.0 4004:1.0 4005:1.0 4006:1.0 4007:1.0 4008:0.333333 4009:0.25 4010:0.125 4011:1.0 4012:0.166667 4013:1.0 4014:0.0588235 4015:0.333333 4016:0.5 4017:1.0 4018:1.0 4019:0.125 4020:1.0 4021:1.0 4022:1.0 4023:0.0588235 4024:1.0 4025:1.0 4026:0.5 4027:0.0909091 4028:0.333333 4029:1.0 4030:0.0833333 4031:0.5 4032:0.142857 4033:0.111111 4034:0.25 4035:0.111111 4036:0.0444444 4037:1.0 4038:1.0 4039:0.333333 4040:1.0 4041:1.0 4042:0.5 4043:0.333333 4044:1.0 4045:1.0 4046:1.0 4047:1.0 4048:0.037037 4049:1.0 4050:0.25 4051:1.0 4052:1.0 4053:0.25 4054:1.0 4055:0.1 4056:1.0 4057:1.0 4058:1.0 4059:0.333333 4060:0.333333 4061:1.0 4062:0.0384615 4063:0.0416667 4064:1.0 4065:0.333333 4066:1.0 4067:1.0 4068:1.0 4069:0.166667 4070:0.2 4071:1.0 4072:0.2 4073:0.047619 4074:0.0526316 4075:0.2 4076:0.5 4077:1.0 4078:1.0 4079:1.0 4080:0.25 4081:1.0 4082:1.0 4083:0.0416667 4084:0.333333 4085:0.5 4086:0.333333 4087:1.0 4088:0.8 4089:0.0283019 4090:0.4 4091:1.0 4092:1.0 4093:1.0 4094:1.0 4095:1.0 4096:1.0 4097:0.75 4098:0.0869565 4099:0.266667 4100:0.153846 4101:1.0 4102:0.25 4103:1.0 4104:1.0 4105:1.0 4106:1.0 4107:0.25 4108:1.0 4109:0.0526316 4110:1.0 4111:0.0454545 4112:1.0 4113:1.0 4114:0.0136054 4115:0.142857 4116:1.0 4117:1.0 4118:1.0 4119:1.0 4120:0.5 4121:1.0 4122:1.0 4123:0.125 4124:0.333333 4125:1.0 4126:1.0 4127:0.1 4128:1.0 4129:1.0 4130:1.0 4131:1.0 4132:0.142857 4133:1.0 4134:1.0 4135:1.0 4136:0.333333 4137:0.142857 4138:0.666667 4139:0.5 4140:1.0 4141:1.0 4142:1.0 4143:0.5 4144:1.0 4145:0.333333 4146:1.0 4147:1.0 4148:1.0 4149:1.0 4150:0.0333333 4151:0.166667 4152:0.5 4153:0.333333 4154:1.0 4155:1.0 4156:1.0 4157:0.666667 4158:1.0 4159:0.2 4160:0.25 4161:1.0 4162:1.0 4163:0.5 4164:1.0 4165:1.0 4166:0.333333 4167:1.0 4168:1.0 4169:1.0 4170:0.5 4171:1.0 4172:0.25 4173:1.0 4174:1.0 4175:0.166667 4176:0.333333 4177:0.0454545 4178:1.0 4179:0.666667 4180:1.0 4181:1.0 4182:1.0 4183:0.5 4184:0.25 4185:0.666667 4186:1.0 4187:0.333333 4188:0.0909091 4189:0.5 4190:1.0 4191:1.0 4192:0.333333 4193:1.0 4194:0.5 4195:1.0 4196:1.0 4197:1.0 4198:1.0 4199:1.0 4200:1.0 4201:1.0 4202:1.0 4203:1.0 4204:0.2 4205:0.5 4206:0.25 4207:1.0 4208:0.25 4209:0.333333 4210:1.0 4211:0.0285714 4212:0.125 4213:0.25 4214:1.0 4215:1.0 4216:0.5 4217:0.125 4218:0.0769231 4219:1.0 4220:0.03125 4221:0.333333 4222:0.5 4223:1.0 4224:0.0833333 4225:0.0625 4226:1.0 4227:1.0 4228:1.0 4229:0.333333 4230:0.166667 4231:0.142857 4232:1.0 4233:1.0 4234:1.0 4235:1.0 4236:0.333333 4237:1.0 4238:0.166667 4239:0.166667 4240:1.0 4241:1.0 4242:0.0909091 4243:0.5 4244:1.0 4245:1.0 4246:0.1 4247:1.0 4248:1.0 4249:1.0 4250:1.0 4251:1.0 4252:0.111111 4253:1.0 4254:1.0 4255:1.0 4256:1.0 4257:0.0227273 4258:1.0 4259:1.0 4260:0.25 4261:1.0 4262:0.5 4263:0.0714286 4264:0.125 4265:0.333333 4266:1.0 4267:1.0 4268:0.25 4269:1.0 4270:0.027027 4271:0.047619 4272:1.0 4273:1.0 4274:1.0 4275:1.0 4276:1.0 4277:0.0666667 4278:1.0 4279:0.333333 4280:0.5 4281:0.5 4282:1.0 4283:0.2 4284:1.0 4285:0.25 4286:1.0 4287:1.0 4288:1.0 4289:1.0 4290:0.333333 4291:1.0 4292:1.0 4293:0.166667 4294:0.0769231 4295:1.0 4296:1.0 4297:0.5 4298:0.5 4299:1.0 4300:1.0 4301:1.0 
4.525006273797274 1:0.333333 2:0.333333 3:0.321429 4:0.333333 5:0.275862 13:0.00440529 16:0.0243902 17:0.0769231 23:0.174603 29:0.307692 30:0.0777778 33:0.296296 34:0.0277778 35:0.75 36:0.0689655 39:0.257576 40:0.192308 46:0.027027 47:0.166667 48:0.177778 53:0.333333 55:0.166667 56:0.0769231 57:0.166667 58:1.0 61:0.25 62:0.285714 63:0.222222 65:0.166667 66:0.157895 67:0.05 70:0.0384615 71:0.047619 72:0.828571 73:0.967213 75:0.25 76:0.0277778 77:0.0306122 80:0.148649 82:0.1 83:0.190476 85:0.0434783 87:0.0714286 89:0.0714286 90:0.85 91:0.0714286 92:0.2 96:0.1 110:0.0909091 111:0.166667 123:0.352941 131:0.166667 137:0.190476 148:0.181818 151:0.473684 152:0.0384615 159:0.037037 162:0.333333 163:0.5 168:0.0606061 171:0.235294 172:0.333333 173:0.333333 175:0.0333333 176:0.0625 178:0.5 182:0.285714 186:0.125 193:0.0666667 194:0.2 201:0.0909091 203:0.25 204:0.117647 207:0.25 211:0.25 212:0.030303 216:0.166667 218:0.0612245 219:0.210526 221:0.142857 222:0.15 224:0.266667 226:0.0526316 228:0.0526316 230:0.210526 233:0.136986 235:0.0666667 239:0.125 242:0.206897 247:0.0218978 254:0.0759494 257:0.235294 258:0.25 261:0.121212 263:0.0714286 266:0.157895 271:0.0714286 290:0.0952381 295:0.285714 299:0.181818 300:0.0666667 303:0.0666667 319:0.0178571 322:0.125 324:0.2 326:0.2 328:0.125 330:0.25 331:0.0153846 339:0.5 342:0.25 343:0.0689655 348:0.0666667 356:0.285714 361:0.375 362:0.0434783 364:0.0625 367:0.0425532 372:0.103448 373:0.0333333 377:0.0454545 379:0.241379 381:0.261905 382:0.0769231 384:0.142857 386:1.0 388:0.4 389:0.25 391:0.0188679 401:0.142857 413:0.333333 414:0.333333 419:0.357143 422:0.1 423:0.333333 432:0.5 434:0.125 435:0.0227273 437:0.1 438:0.5 442:0.125 443:0.5 459:0.142857 493:0.025641 495:0.125 497:0.363636 500:0.0172414 501:0.0555556 504:0.0192308 514:0.0421053 529:0.0322581 533:0.423077 536:0.0886076 537:0.25 554:0.166667 561:0.666667 564:0.0377358 567:0.142857 568:0.0666667 569:0.166667 573:0.117647 583:0.0103093 584:0.111111 585:0.117647 587:0.153846 589:0.130435 592:0.0555556 597:0.2 600:0.482759 601:0.125 607:0.307692 621:0.125 624:0.125 640:0.1 645:0.0833333 669:1.0 672:0.25 673:0.125 678:0.111111 694:0.0714286 695:0.0909091 696:0.0172414 703:0.338028 705:0.0517241 732:0.1 747:0.0833333 753:0.0833333 763:0.388889 767:0.5 768:0.0208333 800:0.2 803:0.5 807:0.111111 808:0.5 814:0.142857 839:0.0909091 849:0.0779221 854:0.0769231 876:0.047619 1008:0.025 1011:0.25 1024:0.2 1026:0.168831 1052:0.0833333 1056:0.0120482 1087:0.117647 1093:0.0769231 1099:0.0263158 1101:0.0428571 1142:0.222222 1164:0.2 1166:1.0 1184:0.15 1197:0.0689655 1203:0.0333333 1209:0.125 1220:0.230769 1227:0.2 1229:0.111111 1238:0.0333333 1245:0.25 1282:0.2 1291:0.454545 1293:0.0204082 1299:0.25 1309:0.75 1319:0.0666667 1326:0.125 1330:0.0625 1333:0.0769231 1337:0.5 1340:0.333333 1377:0.0666667 1402:0.190476 1409:0.153846 1439:0.0263158 1441:0.00917431 1461:0.2 1483:0.0212766 1489:0.0810811 1490:0.1 1502:0.0571429 1503:0.25 1532:0.117647 1536:0.00769231 1548:0.1 1550:0.125 1552:0.333333 1566:0.030303 1568:0.047619 1576:0.4 1599:0.166667 1607:0.0909091 1625:0.111111 1657:0.0232558 1660:0.3 1665:0.0869565 1674:0.25 1683:0.2 1704:0.0666667 1724:0.176471 1751:0.0909091 1771:0.0625 1773:0.0526316 1815:0.142857 1818:0.0212766 1828:0.166667 1833:0.333333 1846:0.0666667 1865:0.1 1878:0.0294118 1880:0.157895 1881:0.666667 1882:0.285714 1889:0.166667 1890:0.05 1899:0.153846 1910:0.1 1920:0.04 1938:0.0833333 1944:0.0909091 1947:0.1875 1964:0.666667 1971:0.230769 1976:0.0769231 1982:0.333333 2018:0.25 2033:0.0857143 2053:0.0491803 2054:0.0555556 2072:0.0769231 2083:0.1 2085:0.0666667 2091:0.0615385 2093:0.00561798 2123:0.181818 2127:0.0434783 2131:0.2 2136:0.0769231 2143:0.166667 2154:1.0 2172:0.047619 2173:0.111111 2175:0.0263158 2184:0.060241 2201:0.142857 2202:0.823529 2218:0.25 2221:0.125 2235:0.0967742 2257:0.00847458 2260:0.160221 2283:0.0588235 2757:0.166667 2772:0.222222 2839:0.5 3200:0.25 3211:0.75 3217:0.0526316 3316:0.0526316 3398:0.0666667 3439:0.08 3487:0.0769231 3498:0.5 3504:1.0 3508:0.0243902 3521:0.0588235 3545:0.166667 3569:0.0555556 3630:0.125 3677:0.25 3763:0.333333 3783:0.153846 3785:0.03125 3786:0.75 3815:0.133333 3860:0.333333 3896:1.0 3910:0.5 3943:0.5 3956:1.0 3963:0.5 4014:0.0588235 4023:0.294118 4060:0.333333 4089:0.00943396 4098:0.0434783 4115:0.285714 4188:0.0909091 4225:0.0625 4252:0.111111 4260:0.25 4279:0.333333 4302:0.190476 4303:0.642857 4304:1.0 4305:0.3 4306:0.25 4307:0.5 4308:0.153846 4309:0.75 4310:0.208333 4311:1.0 4312:0.5 4313:1.0 4314:1.0 4315:0.285714 4316:0.342857 4317:0.4 4318:0.473684 4319:0.5 4320:0.129032 4321:0.333333 4322:0.0714286 4323:0.5 4324:0.666667 4325:0.05 4326:0.285714 4327:1.0 4328:0.5 4329:0.212121 4330:0.6 4331:0.047619 4332:0.025 4333:0.5 4334:0.0714286 4335:0.0123457 4336:0.5 4337:0.142857 4338:0.125 4339:0.5 4340:0.375 4341:1.0 4342:0.25 4343:0.307692 4344:0.357143 4345:0.5 4346:0.418605 4347:0.5 4348:0.5 4349:0.2 4350:0.666667 4351:0.111111 4352:0.5 4353:0.142857 4354:0.25 4355:0.375 4356:0.5 4357:1.0 4358:0.125 4359:0.5 4360:0.5 4361:0.142857 4362:0.285714 4363:1.0 4364:0.2 4365:0.111111 4366:0.214286 4367:0.0263158 4368:0.142857 4369:0.333333 4370:0.2 4371:0.142857 4372:0.0454545 4373:0.285714 4374:1.0 4375:1.0 4376:1.0 4377:1.0 4378:0.2 4379:1.0 4380:1.0 4381:0.2 4382:0.285714 4383:0.142857 4384:0.333333 4385:0.333333 4386:0.5 4387:0.1 4388:0.166667 4389:0.363636 4390:0.333333 4391:1.0 4392:0.25 4393:1.0 4394:0.030303 4395:0.0294118 4396:0.5 4397:0.0588235 4398:0.166667 4399:0.555556 4400:0.5 4401:0.333333 4402:0.25 4403:0.0909091 4404:0.25 4405:0.1 4406:0.0253165 4407:1.0 4408:0.0853659 4409:0.0121951 4410:0.15 4411:0.117647 4412:0.333333 4413:0.333333 4414:0.1 4415:0.5 4416:0.269231 4417:0.184211 4418:0.113636 4419:0.0487805 4420:1.0 4421:0.5 4422:1.0 4423:0.4 4424:1.0 4425:1.0 4426:0.0222222 4427:0.571429 4428:0.117647 4429:1.0 4430:0.0188679 4431:1.0 4432:1.0 4433:0.2 4434:0.25 4435:0.1 4436:0.2 4437:0.0769231 4438:0.1 4439:1.0 4440:0.125 4441:0.25 4442:0.75 4443:0.5 4444:0.0714286 4445:0.0952381 4446:1.0 4447:0.0769231 4448:0.05 4449:1.0 4450:0.166667 4451:0.0645161 4452:1.0 4453:0.173913 4454:0.0833333 4455:0.06 4456:0.030303 4457:0.111111 4458:0.285714 4459:0.5 4460:0.0217391 4461:0.0666667 4462:0.0666667 4463:0.133333 4464:1.0 4465:0.0967742 4466:0.25 4467:0.166667 4468:0.0833333 4469:0.2 4470:0.0540541 4471:1.0 4472:0.111111 4473:0.242424 4474:0.15 4475:0.04 4476:0.0384615 4477:1.0 4478:0.2 4479:0.333333 4480:0.235294 4481:0.125 4482:0.125 4483:0.25 4484:0.125 4485:0.333333 4486:0.230769 4487:0.333333 4488:0.166667 4489:0.333333 4490:0.206897 4491:0.230769 4492:0.130435 4493:0.0869565 4494:1.0 4495:0.5 4496:0.333333 4497:1.0 4498:0.047619 4499:0.125 4500:1.0 4501:1.0 4502:0.1 4503:0.166667 4504:1.0 4505:0.333333 4506:1.0 4507:0.1 4508:0.0344828 4509:0.333333 4510:0.5 4511:0.666667 4512:0.0769231 4513:0.03125 4514:0.166667 4515:1.0 4516:0.0375 4517:1.0 4518:0.142857 4519:0.5 4520:0.333333 4521:0.529412 4522:0.153846 4523:0.2 4524:0.333333 4525:0.166667 4526:1.0 4527:1.0 4528:0.125 4529:0.5 4530:0.5 4531:0.5 4532:0.111111 4533:0.25 4534:0.25 4535:0.2 4536:1.0 4537:1.0 4538:0.75 4539:0.142857 4540:1.0 4541:0.0344828 4542:0.333333 4543:0.166667 4544:0.25 4545:0.181818 4546:0.75 4547:0.5 4548:1.0 4549:0.5 4550:0.166667 4551:0.222222 4552:1.0 4553:0.2 4554:0.2 4555:0.166667 4556:0.333333 4557:0.333333 4558:0.0769231 4559:0.5 4560:0.25 4561:0.0666667 4562:0.166667 4563:0.111111 4564:0.25 4565:0.0227273 4566:0.333333 4567:1.0 4568:0.04 4569:0.027027 4570:0.333333 4571:0.25 4572:0.5 4573:1.0 4574:1.0 4575:0.5 4576:0.25 4577:0.5 4578:1.0 4579:0.25 4580:0.0178571 4581:0.25 4582:0.142857 4583:0.5 4584:0.0769231 4585:0.25 4586:0.0357143 4587:0.125 4588:0.25 4589:1.0 4590:0.5 4591:0.0588235 4592:0.05 4593:0.111111 4594:0.04 4595:1.0 4596:0.25 4597:1.0 4598:1.0 4599:0.142857 4600:0.2 4601:0.111111 4602:0.25 4603:0.2 4604:1.0 4605:0.037037 4606:0.111111 
25.06705775731196 1:0.416667 2:0.458333 3:0.428571 4:0.416667 5:0.344828 13:0.00881057 23:0.015873 29:0.0769231 30:0.0222222 40:0.0576923 47:0.333333 48:0.0666667 53:0.333333 54:0.666667 55:0.166667 56:0.0769231 58:1.0 70:0.0192308 73:0.0327869 75:0.125 80:0.243243 83:0.0952381 91:0.285714 92:0.12 96:0.433333 107:0.0131579 111:0.133333 123:0.117647 134:0.0588235 141:0.025641 142:0.733333 146:0.0487805 148:0.0606061 151:0.0526316 163:0.5 171:0.0588235 173:0.333333 175:0.0333333 182:0.142857 183:0.09375 187:0.428571 190:0.027027 194:0.4 216:0.166667 218:0.346939 219:0.105263 224:0.0666667 227:1.0 234:0.444444 235:0.166667 242:0.0689655 244:1.0 246:1.0 247:0.0291971 248:0.333333 255:0.0909091 263:0.321429 271:0.642857 285:0.025641 290:0.952381 303:0.133333 306:0.0769231 325:0.333333 326:0.1 332:0.714286 346:0.0666667 352:0.5 361:0.375 372:0.172414 373:0.0166667 381:0.0714286 383:0.166667 391:0.0188679 407:0.0416667 411:0.153846 413:0.666667 420:0.0178571 423:0.166667 431:0.709302 435:0.0227273 437:0.1 442:0.0416667 455:0.0666667 460:0.0588235 470:0.0454545 499:0.0526316 501:0.166667 509:0.0175439 510:0.0555556 514:0.0105263 517:0.142857 524:0.0769231 569:0.125 584:0.944444 585:0.264706 587:0.0961538 605:0.25 607:0.384615 608:0.142857 621:0.0625 622:0.08 641:0.0555556 669:0.333333 673:0.125 697:0.05 703:0.0422535 705:0.0517241 706:0.0377358 736:0.0769231 749:0.0625 770:0.125 806:0.0384615 807:0.111111 839:0.575758 841:0.05 903:0.0540541 932:0.0909091 963:0.133333 969:0.0111111 1038:0.0972222 1077:0.0106383 1125:0.031746 1193:0.333333 1198:0.8 1220:0.0769231 1226:0.75 1275:0.25 1290:0.2 1293:0.0204082 1309:0.625 1319:0.0666667 1321:0.222222 1329:0.240741 1340:0.333333 1369:0.2 1391:0.118644 1409:0.0769231 1441:0.0458716 1489:0.027027 1490:0.15 1491:0.666667 1492:1.0 1502:0.0571429 1538:0.3125 1568:0.238095 1576:0.4 1586:1.0 1599:0.166667 1607:0.0909091 1627:0.0769231 1630:0.125 1655:0.1 1820:0.6 1847:0.0454545 1896:0.285714 1904:0.333333 1905:0.333333 1938:0.166667 1944:0.545455 1947:0.125 1958:0.285068 2009:1.0 2069:0.125 2083:0.05 2085:0.0333333 2088:0.166667 2136:0.0769231 2159:0.028169 2166:0.6 2181:0.181818 2184:0.0361446 2197:0.115385 2202:0.176471 2222:1.0 2235:0.0322581 2255:0.1 2260:0.0220994 2790:0.166667 2839:0.375 2923:0.0526316 2939:0.0930233 3156:0.030303 3172:0.105263 3234:0.105263 3285:0.05 3316:0.0526316 3330:0.0625 3331:0.02 3396:0.166667 3440:0.111111 3463:0.5 3487:0.0192308 3510:0.0555556 3657:1.0 3692:0.428571 3874:0.428571 3903:0.117647 4099:0.0666667 4124:0.333333 4127:0.1 4145:0.333333 4150:0.0333333 4225:0.1875 4303:0.0714286 4306:0.0833333 4316:0.0571429 4333:0.5 4340:0.125 4355:0.0625 4358:0.0625 4365:0.111111 4369:0.333333 4399:0.222222 4403:0.0909091 4426:0.0222222 4447:0.307692 4458:0.047619 4462:0.0666667 4490:0.0344828 4508:0.137931 4512:0.153846 4513:0.0625 4516:0.0625 4562:0.166667 4575:0.5 4592:0.05 4600:0.2 4607:1.0 4608:1.0 4609:0.75 4610:1.0 4611:0.0434783 4612:0.0416667 4613:1.0 4614:0.238095 4615:0.708333 4616:1.0 4617:0.428571 4618:1.0 4619:0.428571 4620:0.0277778 4621:1.0 4622:1.0 4623:1.0 4624:0.4 4625:0.2 4626:0.0434783 4627:0.0909091 4628:0.363636 4629:0.15 4630:0.0833333 4631:0.1 4632:0.0357143 4633:0.05 4634:0.333333 4635:1.0 4636:0.230769 4637:1.0 4638:0.0769231 4639:0.0333333 4640:1.0 4641:1.0 4642:0.857143 4643:1.0 4644:0.0344828 4645:0.25 4646:0.333333 4647:0.0769231 4648:1.0 4649:0.105263 4650:0.666667 4651:1.0 4652:1.0 4653:1.0 4654:1.0 4655:1.0 4656:0.555556 4657:0.625 4658:0.214286 4659:1.0 4660:1.0 4661:0.0322581 4662:0.4 4663:0.125 4664:0.25 4665:1.0 4666:1.0 4667:1.0 4668:1.0 4669:0.047619 4670:0.5 4671:0.785714 4672:0.00862069 4673:0.625 4674:0.113636 4675:1.0 4676:1.0 4677:1.0 4678:1.0 4679:0.1 4680:0.125 4681:1.0 4682:0.5 4683:0.5 4684:0.5 4685:0.2 4686:0.5 4687:0.666667 4688:0.0454545 4689:1.0 4690:1.0 4691:1.0 4692:1.0 4693:1.0 4694:1.0 4695:1.0 4696:0.25 4697:0.0714286 4698:0.222222 4699:1.0 4700:0.307692 4701:0.0769231 4702:0.333333 4703:1.0 4704:1.0 4705:0.333333 4706:1.0 4707:0.666667 4708:0.166667 4709:1.0 4710:0.484848 4711:0.857143 4712:1.0 4713:0.375 4714:0.333333 4715:0.25 4716:0.333333 4717:0.0111111 4718:0.5 4719:0.0606061 4720:0.0277778 4721:0.0416667 4722:0.2 4723:0.166667 4724:0.028169 4725:0.222222 4726:0.25 4727:0.0666667 4728:1.0 4729:0.142857 4730:0.166667 4731:0.166667 4732:0.777778 4733:0.5 4734:0.5 4735:0.5 4736:1.0 4737:0.0625 4738:0.5 4739:0.5 4740:0.0909091 4741:1.0 4742:1.0 4743:0.01 4744:0.133333 4745:0.111111 4746:0.5 4747:1.0 4748:0.04 4749:0.5 4750:0.125 4751:0.333333 4752:0.333333 4753:1.0 4754:0.0769231 4755:0.333333 4756:1.0 4757:1.0 4758:0.5 4759:0.0344828 4760:0.5 4761:0.0714286 4762:0.333333 4763:0.0588235 4764:0.142857 4765:0.08 4766:0.333333 4767:0.0588235 4768:0.2 4769:0.04 4770:0.125 4771:0.125 4772:0.166667 4773:0.1 4774:1.0 
4.883731071382355 1:0.333333 2:0.291667 3:0.321429 4:0.291667 5:0.275862 8:0.0204082 22:0.00724638 23:0.015873 27:0.0540541 40:0.0769231 46:0.018018 48:0.0888889 53:0.166667 55:0.166667 56:0.0769231 58:1.0 67:0.1 70:0.0769231 71:0.047619 73:0.0163934 77:0.153061 80:0.0135135 82:0.02 85:0.0434783 91:0.142857 92:0.04 95:0.1 96:0.366667 107:0.0131579 111:0.1 134:0.117647 141:0.0512821 142:0.133333 146:0.121951 148:0.454545 151:0.0526316 156:0.0416667 159:0.037037 162:0.333333 163:0.5 167:0.125 171:0.117647 172:0.333333 173:0.333333 175:0.0333333 190:0.162162 194:0.4 197:0.25 203:0.25 212:0.0151515 213:0.25 224:0.0666667 229:1.0 230:0.0526316 234:1.0 235:0.1 247:0.153285 263:0.785714 285:0.025641 299:0.0909091 301:0.5 303:0.0666667 310:0.333333 314:0.1 318:0.0384615 319:0.0357143 321:0.142857 324:0.1 325:0.333333 326:0.5 330:0.5 338:0.142857 339:0.357143 345:0.142857 346:0.0666667 348:0.0666667 361:0.125 372:0.103448 381:0.0238095 392:0.0192308 413:0.333333 430:0.030303 434:0.125 437:0.8 438:0.5 444:0.027027 445:0.142857 448:0.333333 470:0.0227273 493:0.0512821 500:0.155172 508:0.0769231 509:0.0350877 511:0.0416667 514:0.0421053 518:0.333333 524:0.307692 532:0.0714286 533:0.653846 537:0.166667 550:0.307692 553:0.0285714 554:0.166667 565:0.0833333 568:0.0444444 577:0.142857 583:0.0103093 584:0.333333 587:0.0384615 589:0.0869565 590:0.222222 592:1.0 596:1.0 598:0.0769231 600:0.0344828 603:0.0714286 611:0.019802 621:0.0208333 633:0.0833333 635:1.0 645:0.0833333 662:0.0714286 669:0.333333 670:0.6 676:1.0 678:0.222222 679:0.153846 685:1.0 696:0.0689655 702:0.0153846 747:0.0416667 750:0.25 751:0.0714286 757:0.0434783 765:1.0 767:0.5 768:0.0208333 770:0.0625 772:0.1 774:0.125 784:0.333333 786:0.1 798:0.142857 813:0.111111 825:0.333333 835:0.00947867 847:0.171429 849:0.025974 857:0.025641 872:0.25 875:0.454545 879:0.333333 886:0.1 890:0.0588235 891:0.375 892:0.0909091 893:0.25 894:0.016129 900:0.111111 901:0.0273973 902:0.0666667 903:0.0540541 906:0.0444444 907:0.142857 911:0.0113636 915:0.0434783 916:0.25 917:0.0222222 918:0.133333 919:0.368421 920:0.166667 921:0.5 923:0.5 924:1.0 925:0.333333 926:0.1 927:0.0285714 929:0.0714286 934:0.333333 937:0.111111 941:0.4 942:0.555556 945:0.0277778 949:0.25 952:0.5 953:0.023622 956:0.0215054 960:0.222222 961:0.6 967:0.1 969:0.0111111 979:0.428571 980:0.3 981:0.375 982:0.333333 985:0.375 986:0.0967742 988:0.25 989:0.0487805 992:1.0 998:0.0625 1000:0.0769231 1003:0.25 1099:0.0263158 1164:0.2 1250:0.0714286 1284:0.0555556 1293:0.0204082 1309:0.25 1319:0.133333 1326:0.0625 1483:0.0212766 1489:0.135135 1490:0.05 1499:0.333333 1502:0.0857143 1517:0.047619 1547:1.0 1557:0.05 1585:0.0294118 1593:0.25 1599:0.166667 1607:0.0454545 1630:0.125 1653:1.0 1683:0.6 1729:0.0149254 1751:0.636364 1777:1.0 1785:0.111111 1828:0.333333 1880:0.157895 1909:0.285714 1912:1.0 1917:0.333333 1964:0.166667 1971:0.153846 2009:0.0588235 2038:0.0645161 2065:0.117647 2069:0.125 2083:0.05 2106:0.222222 2132:0.0833333 2168:0.0416667 2182:0.125 2184:0.0120482 2192:0.0454545 2193:0.0833333 2202:0.529412 2225:0.125 2260:0.0165746 2261:0.0147059 2271:0.4 2275:0.166667 2303:0.0540541 2329:0.025641 2340:0.222222 2390:0.25 2413:0.0454545 2454:0.0322581 2489:0.142857 2512:0.0740741 2541:0.25 2548:0.043956 2574:0.0769231 2600:0.166667 2622:0.571429 2694:0.15 2706:0.0714286 2707:1.0 2718:0.2 2725:0.833333 2736:1.0 2750:0.333333 2776:0.0357143 2784:1.0 2860:0.0277778 2863:0.0833333 2875:0.0185185 2940:0.1 2994:0.0517241 3060:0.0434783 3064:0.142857 3069:0.5 3072:0.0625 3120:0.5 3164:1.0 3173:0.129032 3213:0.5 3242:0.0168067 3282:0.0952381 3321:0.5 3355:0.2 3380:0.1 3404:0.5 3432:0.25 3438:0.483871 3439:0.92 3457:0.0277778 3465:0.25 3467:0.0128205 3482:0.1 3486:1.0 3487:0.0192308 3497:0.384615 3500:1.0 3501:1.0 3505:0.5 3508:0.0243902 3512:0.133333 3521:0.176471 3528:0.125 3546:1.0 3648:0.2 3685:0.5 3736:1.0 3744:0.125 3926:0.2 3958:0.333333 4225:0.125 4262:0.5 4279:0.333333 4302:0.0238095 4304:0.0967742 4307:0.166667 4355:0.0625 4358:0.0625 4367:0.0263158 4415:0.5 4417:0.631579 4426:0.0222222 4427:0.142857 4428:0.0588235 4436:0.2 4441:0.75 4442:0.25 4475:0.04 4479:0.333333 4534:0.25 4538:0.25 4548:1.0 4549:0.5 4566:0.333333 4594:0.08 4608:0.0588235 4617:0.142857 4628:0.0909091 4629:0.1 4636:0.153846 4686:1.0 4699:0.5 4725:0.111111 4744:0.133333 4765:0.16 4851:0.333333 4853:0.00518135 4865:0.5 4883:0.111111 4890:0.0588235 5035:0.0909091 5092:0.0555556 5135:0.111111 5156:0.111111 5226:0.75 5239:0.222222 5334:0.333333 5350:0.333333 5431:0.1 5443:0.5 5514:0.0333333 5539:0.111111 5611:0.2 5626:0.0243902 5692:0.5 5693:1.0 5694:1.0 5695:1.0 5696:0.133333 5697:0.117647 5698:0.125 5699:0.25 5700:0.333333 5701:1.0 5702:0.5 5703:0.30303 5704:1.0 5705:0.473684 5706:1.0 5707:1.0 5708:1.0 5709:1.0 5710:1.0 5711:0.5 5712:0.888889 5713:0.363636 5714:1.0 5715:0.333333 5716:1.0 5717:0.142857 5718:0.0454545 5719:0.285714 5720:1.0 5721:0.5 5722:0.0833333 5723:0.75 5724:1.0 5725:1.0 5726:1.0 5727:0.5 5728:1.0 5729:1.0 5730:1.0 5731:0.25 5732:0.5 5733:0.0909091 5734:0.0454545 5735:1.0 5736:1.0 5737:0.166667 5738:1.0 5739:0.5 5740:1.0 5741:0.5 5742:1.0 5743:1.0 5744:1.0 5745:0.333333 5746:1.0 5747:0.2 5748:1.0 5749:0.0172414 5750:0.25 5751:0.333333 5752:0.5 5753:1.0 5754:0.111111 5755:1.0 5756:1.0 5757:1.0 5758:1.0 5759:0.0555556 5760:1.0 5761:0.25 5762:0.75 5763:0.0833333 5764:1.0 5765:0.363636 5766:0.1875 5767:1.0 5768:1.0 5769:1.0 5770:1.0 5771:1.0 5772:0.333333 5773:1.0 5774:1.0 5775:1.0 5776:1.0 5777:0.315789 5778:0.5 5779:0.4 5780:0.8 5781:0.25 5782:0.5 5783:0.461538 5784:0.5 5785:0.6 5786:0.666667 5787:1.0 5788:0.166667 5789:0.25 5790:1.0 5791:1.0 5792:1.0 5793:1.0 5794:0.5 5795:1.0 5796:0.5 5797:1.0 5798:0.25 5799:0.5 5800:1.0 5801:0.666667 5802:0.5 5803:1.0 5804:0.5 5805:0.166667 5806:1.0 5807:1.0 5808:1.0 5809:0.25 5810:0.142857 5811:0.333333 5812:1.0 5813:1.0 5814:0.5 5815:1.0 5816:1.0 5817:0.1 5818:0.5 5819:0.333333 5820:0.333333 5821:0.333333 5822:1.0 5823:1.0 5824:0.111111 5825:0.333333 5826:1.0 5827:0.2 5828:0.142857 5829:0.25 5830:0.2 5831:1.0 5832:1.0 5833:0.0555556 5834:1.0 5835:0.25 5836:0.222222 5837:0.333333 5838:0.5 5839:1.0 5840:1.0 5841:1.0 5842:0.333333 5843:1.0 5844:1.0 5845:0.333333 5846:1.0 5847:0.666667 5848:1.0 5849:1.0 5850:1.0 5851:1.0 5852:1.0 5853:0.25 5854:1.0 5855:0.25 5856:1.0 5857:1.0 5858:1.0 5859:1.0 5860:1.0 5861:0.25 5862:1.0 5863:1.0 5864:1.0 5865:1.0 5866:1.0 5867:0.5 5868:0.037037 5869:0.25 5870:0.25 5871:1.0 5872:1.0 5873:0.0151515 5874:0.0909091 5875:0.333333 5876:0.125 5877:0.375 5878:0.0555556 5879:0.166667 5880:0.25 5881:0.238095 5882:0.428571 5883:0.0857143 5884:1.0 5885:0.0677966 5886:0.666667 5887:0.15 5888:0.15 5889:0.0416667 5890:0.125 5891:0.111111 5892:0.0625 5893:0.333333 5894:0.333333 5895:0.0666667 5896:0.047619 5897:0.333333 5898:0.166667 5899:0.0116279 5900:0.666667 5901:0.190476 5902:0.2 5903:0.0666667 5904:0.0454545 5905:1.0 5906:0.2 5907:0.5 5908:0.125 5909:0.111111 5910:0.333333 5911:0.5 5912:0.125 5913:0.2 5914:0.166667 5915:0.5 5916:0.333333 5917:0.0526316 
1.2009826319139356 1:0.0416667 2:0.0416667 4:0.0416667 13:0.0132159 16:0.0487805 22:0.0652174 23:0.031746 40:0.0961538 46:0.018018 47:0.5 48:0.111111 58:1.0 65:0.166667 70:0.0192308 72:0.1 77:0.0204082 90:0.05 136:0.0469799 141:0.025641 155:0.125 162:0.333333 166:0.25 174:0.2 190:0.0540541 205:0.214286 206:0.0833333 221:0.047619 225:0.0588235 239:0.125 322:0.0625 324:0.1 326:0.1 328:0.125 387:0.0416667 392:0.0769231 393:0.0322581 394:0.375 408:0.333333 423:0.166667 451:1.0 461:0.0666667 470:0.0454545 478:0.25 500:0.0172414 514:0.0105263 516:0.1 519:0.125 543:0.166667 565:0.0833333 606:0.0322581 611:0.00990099 660:0.0909091 692:0.5 702:0.0153846 710:0.2 711:0.333333 715:0.75 751:0.0714286 763:0.0277778 818:0.333333 834:0.333333 835:0.0947867 854:0.0769231 862:1.0 864:0.0714286 886:0.2 888:0.0714286 894:0.258065 901:0.164384 902:0.0833333 903:0.027027 907:0.142857 911:0.0340909 914:0.238095 922:0.578947 923:0.25 948:0.0810811 953:0.0629921 957:0.0212766 966:0.0769231 969:0.288889 986:0.258065 987:0.0666667 989:0.097561 998:0.125 1091:0.0769231 1132:0.037037 1142:0.111111 1182:0.05 1197:0.0344828 1288:0.0714286 1326:0.0625 1384:0.9 1387:0.04 1402:0.047619 1441:0.00917431 1583:0.2 1629:0.125 1660:0.1 1669:0.285714 1724:0.0588235 1880:0.0526316 1937:1.0 1938:0.0833333 1986:0.7 2052:0.117647 2091:0.0153846 2163:0.2 2172:0.047619 2197:0.153846 2201:0.0714286 2211:0.0227273 2291:0.322581 2292:0.477273 2293:0.5 2294:0.116505 2295:0.0684932 2296:0.09375 2299:0.161491 2309:0.153846 2317:0.0645161 2318:0.1 2319:0.117647 2320:0.0273973 2324:0.473684 2325:0.25 2326:0.2 2327:0.333333 2328:0.2 2329:0.179487 2339:0.0581395 2342:0.0909091 2345:0.0175439 2347:0.0408163 2348:0.0984127 2349:0.166667 2350:0.384615 2354:0.2 2355:0.04 2357:0.0888889 2360:0.04 2362:0.0625 2372:0.0714286 2373:0.047619 2374:0.333333 2376:0.0285714 2381:0.0444444 2382:0.5 2386:0.2 2387:0.166667 2388:1.0 2406:0.037037 2408:0.0322581 2409:0.266667 2414:0.103448 2416:0.133333 2417:0.25 2418:0.25 2419:0.0322581 2420:0.09375 2427:0.0294118 2431:0.0222222 2432:0.0877193 2436:0.0253165 2437:0.125 2439:0.5 2450:0.15 2453:0.32 2455:0.0136986 2456:0.147059 2460:0.344262 2462:0.125 2463:0.0909091 2464:0.307692 2466:0.0454545 2470:0.0434783 2472:0.106383 2473:0.0588235 2486:0.0666667 2487:0.181818 2488:0.178571 2491:0.030303 2492:0.0666667 2511:0.0384615 2513:0.0555556 2519:0.0185185 2522:0.0833333 2524:0.0181818 2530:0.153846 2538:0.16 2542:0.5 2548:0.032967 2558:0.0384615 2566:0.0121951 2567:0.25641 2569:0.387097 2577:0.525641 2578:1.0 2579:0.230769 2582:0.333333 2583:0.0666667 2584:0.447368 2589:0.08 2590:0.0196078 2594:0.05 2600:0.166667 2601:0.1 2605:0.307692 2607:0.0769231 2609:0.125 2625:0.047619 2633:0.0769231 2640:0.00613497 2645:0.0769231 2648:0.0740741 2650:0.216216 2652:0.112 2653:0.0192308 2657:0.0416667 2660:0.0625 2665:0.134921 2672:0.116279 2676:0.317073 2677:0.75 2678:0.270833 2679:0.384615 2685:0.1 2686:0.142857 2687:0.111111 2692:0.333333 2693:0.0909091 2695:0.111111 2696:0.666667 2699:0.5 2700:0.0526316 2702:0.0833333 2703:0.111111 2709:0.0833333 2710:0.135593 2713:0.142857 2716:0.0904523 2718:0.6 2721:0.108108 2723:0.136752 2726:0.130435 2728:0.68 2732:0.0595238 2735:0.0793651 2738:0.285714 2743:0.0869565 2746:0.5 2765:0.333333 2766:1.0 2767:0.0833333 2770:1.0 2795:0.5 2799:0.04 2816:0.5 2819:0.038961 2831:0.25 2835:0.0769231 2845:0.25 2863:0.416667 2870:0.097561 2875:0.462963 2876:0.111111 2885:0.107143 2886:0.428571 2891:0.115385 2896:0.2 2907:0.030303 2914:0.142857 2917:0.296703 2922:0.12 2925:0.105263 2932:0.428571 2949:0.0869565 2952:0.0340909 2953:0.4 2955:0.047619 2975:0.25 2995:0.136364 2998:0.733333 3009:0.0285714 3011:0.105263 3020:0.307692 3026:0.0588235 3029:0.0277778 3030:0.2 3034:0.333333 3036:0.0588235 3038:0.545455 3049:0.03125 3060:0.130435 3074:0.304348 3079:0.0416667 3090:0.277778 3100:1.0 3112:0.0285714 3113:0.125 3114:1.0 3123:0.2 3133:0.2 3148:0.666667 3199:0.166667 3207:0.5 3219:0.00671141 3222:1.0 3231:0.0149254 3235:0.0566038 3269:0.0833333 3276:0.117647 3277:0.0540541 3280:0.0294118 3286:0.4 3288:1.0 3303:1.0 3329:0.333333 3331:0.02 3338:0.04 3339:0.0258065 3340:0.114286 3347:0.097561 3351:0.263636 3364:0.142857 3372:0.228571 3377:0.190476 3380:0.1 3398:0.0666667 3400:0.5 3421:0.135135 3452:0.222222 3463:0.166667 3471:0.0769231 3487:0.0192308 3495:1.0 3497:0.0769231 3503:0.0322581 3568:1.0 3860:0.666667 3903:0.0588235 4083:0.0833333 4188:0.909091 4293:0.5 4305:0.1 4315:0.114286 4320:0.0322581 4350:0.333333 4358:0.125 4361:0.142857 4362:0.142857 4366:0.0714286 4367:0.0789474 4368:0.285714 4369:0.333333 4389:0.0909091 4409:0.0365854 4427:0.142857 4470:0.027027 4493:0.173913 4498:0.0952381 4499:0.0625 4513:0.0078125 4609:0.0113636 4611:0.0434783 4669:1.0 4723:0.0833333 4763:0.176471 4796:0.0769231 4851:0.333333 4868:0.5 4874:0.333333 4937:0.0322581 5041:0.1 5117:0.2 5154:0.5 5212:0.0909091 5267:0.0277778 5352:0.333333 5387:0.571429 5411:0.181818 5415:0.111111 5431:0.05 5442:0.333333 5444:0.0526316 5466:0.0140845 5469:0.0540541 5470:0.0588235 5476:0.125 5480:0.0666667 5482:0.6 5484:0.111111 5497:0.130435 5500:0.04 5505:0.05 5509:0.0833333 5513:0.145833 5515:0.0909091 5526:0.461538 5549:0.0357143 5553:0.333333 5559:0.466667 5560:0.0909091 5563:0.0540541 5565:0.5 5569:0.027027 5576:0.5 5579:0.4 5592:0.0769231 5661:0.0666667 5666:1.0 5678:0.25 5680:0.5 5697:0.0588235 5700:0.333333 5739:0.5 5895:0.133333 5904:0.0909091 5909:0.555556 5915:0.5 5918:0.80303 5919:0.84375 5920:0.586957 5921:0.494118 5922:0.566667 5923:0.777778 5924:1.0 5925:1.0 5926:1.0 5927:0.272727 5928:0.0588235 5929:0.166667 5930:0.3125 5931:0.238095 5932:1.0 5933:1.0 5934:1.0 5935:0.5 5936:1.0 5937:1.0 5938:1.0 5939:1.0 5940:0.181818 5941:1.0 5942:0.166667 5943:0.235294 5944:0.166667 5945:0.0714286 5946:0.5 5947:1.0 5948:0.25 5949:0.166667 5950:0.142857 5951:1.0 5952:0.166667 5953:0.0666667 5954:0.037037 5955:0.0434783 5956:0.222222 5957:0.5 5958:0.111111 5959:0.2 5960:0.214286 5961:0.04 5962:0.5 5963:0.0454545 5964:1.0 5965:0.0555556 5966:0.384615 5967:0.375 5968:0.666667 5969:0.333333 5970:0.142857 5971:1.0 5972:0.727273 5973:1.0 5974:1.0 5975:0.4 5976:0.285714 5977:0.333333 5978:1.0 5979:1.0 5980:1.0 5981:1.0 5982:0.666667 5983:0.0454545 5984:0.25 5985:0.5 5986:1.0 5987:0.333333 5988:1.0 5989:0.111111 5990:1.0 5991:0.230769 5992:0.0909091 5993:0.0212766 5994:0.1 5995:0.0769231 5996:1.0 5997:1.0 5998:0.0769231 5999:0.666667 6000:1.0 6001:0.0212766 6002:0.125 6003:0.0666667 6004:0.222222 6005:0.0328947 6006:0.333333 6007:1.0 6008:0.0307692 6009:1.0 6010:0.0192308 6011:0.1 6012:1.0 6013:0.142857 6014:1.0 6015:0.105263 6016:0.111111 6017:1.0 6018:0.375 6019:0.333333 6020:0.0714286 6021:0.25 6022:0.2 6023:1.0 6024:0.666667 6025:0.015873 6026:0.25 6027:0.0333333 6028:0.05 6029:1.0 6030:1.0 6031:1.0 6032:0.5 6033:1.0 6034:1.0 6035:0.5 6036:0.111111 6037:0.0555556 6038:0.0322581 6039:1.0 6040:0.142857 6041:0.047619 6042:0.282051 6043:1.0 6044:0.25 6045:0.333333 6046:1.0 6047:1.0 6048:0.117647 6049:0.289474 6050:0.666667 6051:1.0 6052:1.0 6053:0.210526 6054:1.0 6055:0.0235294 6056:1.0 6057:0.0769231 6058:0.428571 6059:0.75 6060:0.2 6061:1.0 6062:1.0 6063:0.125 6064:0.181818 6065:1.0 6066:0.666667 6067:0.0192308 6068:0.03125 6069:0.2 6070:0.5 6071:0.666667 6072:0.25 6073:0.8 6074:0.5 6075:0.5 6076:1.0 6077:0.166667 6078:1.0 6079:1.0 6080:0.0285714 6081:1.0 6082:0.142857 6083:0.75 6084:1.0 6085:0.0344828 6086:0.047619 6087:0.4 6088:0.5 6089:1.0 6090:0.5 6091:1.0 6092:1.0 6093:0.0666667 6094:0.0120482 6095:0.0322581 6096:0.1 6097:0.5 6098:0.333333 6099:0.142857 6100:0.125 6101:1.0 6102:0.0384615 6103:1.0 6104:0.333333 6105:1.0 6106:0.4 6107:0.7 6108:0.333333 6109:1.0 6110:0.0833333 6111:1.0 6112:0.05 6113:0.142857 6114:1.0 6115:0.1 6116:1.0 6117:1.0 6118:1.0 6119:0.5 6120:0.5 6121:1.0 6122:0.0833333 6123:1.0 6124:1.0 6125:0.1 6126:0.5 6127:0.5 6128:1.0 6129:0.0227273 6130:1.0 6131:0.25 6132:1.0 6133:1.0 6134:1.0 6135:1.0 6136:0.6 6137:1.0 6138:1.0 6139:1.0 6140:1.0 6141:1.0 6142:1.0 6143:1.0 6144:0.142857 6145:0.5 6146:1.0 6147:0.0666667 6148:1.0 6149:0.5 6150:1.0 6151:0.333333 6152:0.666667 6153:1.0 6154:1.0 6155:0.2 6156:0.5 6157:0.5 6158:0.166667 6159:1.0 6160:0.666667 6161:0.333333 6162:1.0 6163:1.0 6164:1.0 6165:1.0 6166:1.0 6167:1.0 6168:1.0 6169:0.1 6170:0.25 6171:1.0 6172:1.0 6173:1.0 6174:0.0192308 6175:0.0909091 6176:1.0 6177:0.333333 6178:1.0 6179:1.0 6180:0.333333 6181:1.0 6182:0.5 6183:0.25 6184:0.0625 6185:0.0133333 6186:0.25 6187:0.25 6188:1.0 6189:0.5 6190:1.0 6191:0.166667 6192:0.333333 6193:1.0 6194:1.0 6195:0.0232558 6196:1.0 6197:1.0 6198:1.0 6199:1.0 6200:0.5 6201:1.0 6202:0.5 6203:1.0 6204:0.333333 6205:0.0833333 6206:0.333333 6207:0.333333 6208:1.0 6209:1.0 6210:0.5 6211:1.0 6212:0.0666667 6213:1.0 6214:1.0 6215:0.333333 6216:1.0 6217:1.0 6218:1.0 6219:1.0 6220:1.0 6221:1.0 6222:1.0 6223:1.0 6224:1.0 6225:0.2 6226:1.0 6227:1.0 6228:1.0 6229:1.0 6230:1.0 6231:1.0 6232:1.0 6233:0.333333 6234:1.0 6235:1.0 6236:1.0 6237:1.0 6238:1.0 6239:0.333333 6240:0.5 6241:1.0 6242:0.0869565 6243:0.0909091 6244:1.0 6245:0.75 6246:1.0 6247:0.0333333 6248:0.333333 6249:0.5 6250:1.0 6251:0.5 6252:0.25 6253:0.5 6254:0.666667 6255:1.0 6256:0.5 6257:1.0 6258:1.0 
23.181811273055132 1:0.208333 2:0.208333 3:0.214286 4:0.291667 5:0.206897 10:0.0222222 13:0.0176211 16:0.097561 23:0.015873 25:0.0454545 26:0.0526316 27:0.027027 29:0.0769231 30:0.2 34:0.0277778 40:0.153846 46:0.018018 48:0.0444444 51:0.0588235 52:0.012987 53:0.333333 54:0.333333 55:0.166667 56:0.0769231 58:1.0 61:0.25 66:0.0526316 67:0.025 69:0.0833333 70:0.0576923 72:0.271429 73:0.327869 75:0.5 77:0.0714286 79:0.125 80:0.0810811 83:0.047619 85:0.0217391 87:0.285714 90:0.6 96:0.0333333 107:0.0131579 109:0.388889 123:0.0588235 137:0.142857 146:0.0243902 149:0.0344828 153:0.166667 159:0.037037 162:0.333333 163:0.5 168:0.030303 172:0.333333 175:0.0666667 178:0.333333 187:0.285714 188:0.4 203:0.0833333 207:0.0833333 211:0.25 221:0.047619 222:0.2 226:1.0 230:0.263158 233:0.260274 242:0.0344828 247:0.0291971 253:0.05 254:0.797468 255:0.545455 257:0.294118 258:0.375 263:0.142857 266:0.105263 271:0.214286 299:0.0909091 306:0.0769231 310:0.333333 312:0.0344828 326:0.2 332:0.142857 339:0.0714286 372:0.0689655 373:0.0166667 381:0.142857 388:0.04 390:0.05 392:0.0192308 401:0.142857 403:0.25 420:0.0714286 422:0.1 428:0.333333 435:0.0227273 438:0.5 442:0.333333 444:0.027027 455:0.266667 460:0.176471 501:0.166667 514:0.0315789 517:0.142857 519:0.375 524:0.0769231 553:0.0857143 554:0.166667 569:0.0416667 584:0.111111 585:0.176471 587:0.0961538 589:0.0869565 592:0.0555556 598:0.153846 601:0.125 607:0.153846 621:0.0416667 622:0.04 626:0.666667 655:0.0714286 665:0.0909091 670:1.0 672:0.25 673:0.125 692:0.125 695:0.0909091 702:0.123077 703:0.0140845 705:0.0172414 706:0.0377358 713:0.0333333 729:0.166667 732:0.1 747:0.0833333 750:0.25 751:1.0 768:0.0208333 770:0.0625 788:0.333333 835:0.00473934 844:0.133333 1008:0.025 1009:0.027027 1010:0.111111 1023:1.0 1037:0.0384615 1052:1.0 1066:0.125 1079:0.25 1087:0.0470588 1091:0.307692 1115:0.0238095 1132:0.0740741 1140:0.625 1142:0.111111 1164:0.2 1174:0.0833333 1182:0.05 1201:0.166667 1223:0.142857 1231:0.166667 1243:0.0952381 1289:0.0769231 1297:0.5 1299:0.125 1304:0.142857 1309:0.125 1312:0.5 1328:0.00925926 1333:0.0769231 1349:0.142857 1357:0.2 1365:0.0909091 1387:0.08 1401:0.181818 1402:0.142857 1502:0.0285714 1514:0.030303 1547:0.0322581 1552:0.166667 1625:0.0277778 1627:0.307692 1637:0.466667 1890:0.05 1896:0.142857 1933:0.5 1944:0.0909091 1947:0.1875 1976:0.0769231 1982:0.666667 2051:1.0 2053:0.0163934 2054:0.0555556 2056:0.333333 2064:0.0769231 2073:0.0833333 2078:0.222222 2082:0.146341 2083:0.15 2095:0.333333 2132:0.166667 2173:0.277778 2184:0.0120482 2188:0.25 2202:0.0588235 2260:0.198895 2272:0.5 2689:0.5 2718:0.2 2783:0.25 2793:0.833333 2839:0.125 2923:0.0789474 3192:0.0441176 3200:0.125 3398:0.8 3487:0.0384615 3514:0.111111 3528:1.0 3531:0.2 3541:0.166667 3559:0.2 3640:0.222222 3685:0.166667 3783:0.384615 3795:0.166667 3813:0.0769231 4055:0.2 4086:0.333333 4127:0.1 4136:0.166667 4208:0.5 4217:0.125 4306:0.166667 4314:0.142857 4315:0.0428571 4318:0.0526316 4320:0.0645161 4337:0.285714 4338:0.125 4355:0.0625 4358:0.1875 4360:0.125 4361:0.142857 4364:1.0 4366:0.0714286 4388:0.166667 4392:0.0833333 4395:0.294118 4399:0.333333 4401:0.333333 4405:0.5 4408:0.0365854 4413:0.0833333 4441:0.25 4454:0.0416667 4460:0.0217391 4470:0.027027 4483:0.25 4485:0.666667 4486:0.230769 4492:0.0434783 4520:0.666667 4521:0.176471 4523:0.1 4525:0.666667 4528:0.25 4534:0.25 4541:0.0172414 4543:0.333333 4571:0.5 4602:0.25 4625:0.2 4628:0.272727 4663:0.125 4699:0.5 4733:0.25 4744:0.0666667 4771:0.125 4810:0.111111 4937:0.0322581 5033:0.125 5038:0.0666667 5055:0.333333 5113:0.857143 5144:1.0 5289:0.5 5402:0.25 5404:0.184211 5413:0.25 5702:0.5 5739:0.5 5942:0.0238095 6115:0.1 6122:0.0833333 6347:0.0222222 6792:0.5 6906:1.0 6986:1.0 6987:1.0 6988:0.333333 6989:1.0 6990:1.0 6991:0.4 6992:1.0 6993:1.0 6994:0.833333 6995:1.0 6996:1.0 6997:0.0666667 6998:0.103448 6999:0.25 7000:1.0 7001:0.5 7002:0.1 7003:1.0 7004:1.0 7005:0.1 7006:0.125 7007:1.0 7008:0.5 7009:1.0 7010:0.333333 7011:1.0 7012:0.0425532 7013:0.5 7014:0.05 7015:1.0 7016:1.0 7017:0.142857 7018:1.0 7019:1.0 7020:1.0 7021:0.142857 7022:1.0 7023:0.5 7024:0.2 7025:0.5 7026:1.0 7027:0.1 7028:1.0 7029:1.0 7030:0.25 7031:0.1 7032:1.0 7033:1.0 7034:0.2 7035:1.0 7036:1.0 7037:1.0 7038:1.0 7039:1.0 7040:1.0 7041:1.0 7042:1.0 7043:0.0222222 7044:0.166667 7045:0.5 7046:1.0 7047:1.0 7048:0.0416667 7049:0.25 7050:1.0 7051:0.166667 7052:1.0 7053:1.0 7054:1.0 7055:0.307692 7056:1.0 7057:0.25 7058:0.333333 7059:0.117647 7060:0.166667 7061:0.333333 7062:0.166667 7063:0.0188679 7064:0.333333 7065:0.0833333 7066:0.0909091 7067:0.5 7068:1.0 7069:1.0 7070:0.125 7071:1.0 7072:1.0 7073:0.5 7074:1.0 7075:0.5 7076:1.0 7077:0.05 7078:0.0526316 7079:1.0 7080:0.25 7081:1.0 7082:1.0 7083:1.0 7084:1.0 7085:1.0 7086:1.0 7087:0.333333 7088:1.0 7089:0.2 7090:0.142857 7091:1.0 7092:0.166667 7093:0.333333 7094:1.0 7095:1.0 7096:0.166667 7097:1.0 7098:0.0909091 7099:1.0 7100:0.25 7101:1.0 7102:1.0 7103:0.142857 7104:1.0 7105:1.0 7106:0.285714 7107:1.0 7108:0.5 7109:1.0 7110:1.0 7111:1.0 7112:0.0416667 7113:0.05 7114:0.5 7115:0.5 7116:0.333333 7117:0.5 7118:1.0 7119:0.333333 7120:1.0 7121:0.25 7122:0.5 7123:0.333333 7124:1.0 7125:0.5 7126:1.0 7127:0.333333 7128:1.0 7129:0.0833333 7130:0.0588235 7131:0.5 7132:0.166667 7133:1.0 7134:1.0 7135:0.25 7136:1.0 7137:1.0 7138:1.0 
2.1389813977817327 1:0.541667 2:0.458333 3:0.571429 4:0.5 5:0.37931 9:0.172414 10:0.0888889 13:0.00440529 16:0.097561 22:0.00724638 23:0.047619 30:0.2 33:0.0740741 36:0.206897 39:0.0151515 40:0.461538 46:0.036036 48:0.0444444 52:0.012987 53:0.333333 55:0.166667 56:0.153846 58:1.0 60:0.166667 65:0.166667 66:0.210526 69:0.0833333 70:0.134615 77:0.0510204 80:0.445946 85:0.0652174 87:0.214286 90:0.05 91:0.0714286 92:0.04 95:0.1 96:1.0 110:0.030303 136:0.00671141 137:0.190476 150:0.05 152:0.0769231 153:0.333333 162:0.333333 163:0.5 171:0.0588235 172:0.333333 173:0.333333 174:0.0666667 175:0.633333 176:0.0625 178:0.5 182:0.285714 183:0.03125 184:0.12 190:0.27027 193:0.0666667 194:0.2 195:0.333333 197:0.5 203:0.75 204:0.235294 207:0.166667 225:0.0588235 228:0.0526316 238:0.333333 247:0.0583942 248:1.0 251:0.326923 254:0.113924 255:0.0454545 256:0.0526316 257:0.176471 258:0.625 261:0.151515 263:0.0714286 271:0.142857 273:0.176471 303:0.0666667 306:0.307692 309:0.153846 312:0.0689655 322:0.1875 323:0.25 331:0.0615385 341:0.0909091 346:0.133333 348:0.133333 350:0.0769231 352:0.125 367:0.0212766 372:0.137931 373:0.0166667 377:0.0227273 380:0.00869565 381:0.119048 382:0.692308 388:0.56 391:0.0377358 393:0.0322581 397:0.6 399:0.125 402:0.6 407:1.0 409:0.37037 410:1.0 420:0.892857 426:1.0 430:1.0 432:0.5 434:0.5 437:0.2 438:0.5 443:0.1 444:0.0540541 448:0.333333 455:0.133333 460:0.647059 465:0.333333 468:0.2 470:0.0227273 472:0.2 493:0.025641 500:0.0517241 501:0.111111 509:0.491228 511:0.0416667 512:0.111111 514:0.0315789 516:0.1 519:0.125 524:0.153846 527:1.0 532:0.0714286 537:0.0416667 549:0.375 569:0.25 590:0.111111 592:0.111111 593:0.4 600:0.137931 602:0.0666667 604:0.0952381 614:1.0 619:0.166667 620:0.375 621:0.125 622:0.08 627:0.25 641:0.0555556 655:0.285714 665:0.818182 673:0.125 688:1.0 692:0.25 694:0.0714286 697:0.7 703:0.126761 705:0.103448 713:0.233333 732:0.1 736:1.0 751:0.285714 768:0.0208333 784:0.166667 788:0.333333 795:0.333333 800:0.2 802:0.0909091 803:0.416667 806:0.192308 814:0.142857 828:0.015625 835:0.00947867 837:0.344828 839:0.0606061 841:0.15 888:0.0357143 891:0.0625 1004:1.0 1006:0.0384615 1028:0.0333333 1043:0.0263158 1056:0.120482 1087:0.329412 1140:0.375 1149:0.428571 1154:0.016129 1173:0.6 1174:0.0833333 1178:1.0 1182:0.3 1197:0.0689655 1198:0.0857143 1231:0.166667 1235:0.166667 1243:0.142857 1245:0.125 1250:0.142857 1257:0.0833333 1269:0.00877193 1287:0.166667 1293:0.0204082 1299:0.5 1307:0.0333333 1309:0.25 1321:0.111111 1326:0.125 1327:0.333333 1330:0.0625 1340:0.333333 1341:0.4 1368:0.0909091 1372:0.8 1373:0.666667 1388:0.461538 1402:0.47619 1405:0.105263 1406:0.333333 1409:0.307692 1421:0.0833333 1441:1.0 1449:0.25 1459:0.0625 1462:0.333333 1478:0.0740741 1483:0.0212766 1489:0.0810811 1501:0.285714 1502:0.114286 1514:0.151515 1531:0.25 1532:0.0294118 1533:0.333333 1536:0.138462 1548:0.1 1552:0.666667 1566:0.0606061 1578:0.142857 1593:1.0 1594:0.030303 1599:0.166667 1617:0.222222 1634:0.125 1635:0.5 1638:0.0588235 1641:0.0625 1654:0.333333 1656:0.05 1660:0.3 1722:0.0714286 1751:0.0909091 1773:0.105263 1775:0.5 1777:0.5 1797:0.333333 1800:0.333333 1815:0.142857 1818:0.234043 1822:0.111111 1828:0.666667 1832:0.0185185 1877:0.444444 1878:0.147059 1880:0.157895 1881:0.333333 1889:0.166667 1890:0.05 1896:0.428571 1905:0.333333 1931:0.5 1937:0.285714 1938:0.0833333 1944:0.0909091 1947:0.0625 1955:0.0588235 1956:0.333333 1964:0.166667 1972:0.25 1974:0.5 2002:1.0 2005:0.2 2009:0.352941 2032:0.2 2033:0.228571 2042:1.0 2053:0.0163934 2065:0.176471 2078:0.0888889 2079:0.0666667 2082:0.0243902 2085:0.0333333 2127:0.0217391 2139:1.0 2142:0.333333 2150:0.0857143 2152:0.0384615 2158:0.5 2159:0.0422535 2175:0.171053 2179:0.166667 2208:0.75 2226:0.0714286 2250:0.0416667 2254:0.2 2260:0.0165746 2265:0.5 2275:0.166667 2281:0.15625 2282:0.125 2645:0.0769231 2773:1.0 2782:0.25 2786:0.357143 2787:0.357143 2793:0.166667 3150:0.333333 3156:0.030303 3192:0.161765 3198:0.25 3200:0.125 3205:1.0 3396:0.166667 3398:0.0666667 3409:0.0769231 3487:0.0384615 3497:0.538462 3510:0.0555556 3573:0.2 3605:0.2 3650:0.0555556 3661:0.0909091 3662:0.1 3682:0.25 3692:0.142857 3694:0.166667 3695:0.0714286 3718:0.333333 3747:1.0 3763:0.666667 3853:0.166667 3874:0.142857 4023:0.176471 4086:0.333333 4089:0.0283019 4193:1.0 4217:0.125 4231:0.142857 4257:0.0227273 4265:0.333333 4308:0.230769 4309:0.25 4313:0.333333 4316:0.5 4320:0.0645161 4321:0.166667 4333:0.25 4338:0.125 4343:0.0769231 4348:0.5 4354:0.5 4355:0.4375 4361:0.142857 4364:0.2 4365:0.111111 4367:0.0263158 4384:0.166667 4392:0.0833333 4398:0.166667 4405:0.05 4411:0.588235 4418:0.0227273 4423:0.8 4436:0.4 4447:0.461538 4448:0.05 4461:0.133333 4462:0.0666667 4467:0.5 4490:0.0344828 4499:0.0625 4508:0.827586 4512:0.692308 4513:1.0 4542:0.333333 4569:0.0810811 4581:0.25 4584:0.0769231 4586:0.464286 4591:0.117647 4599:0.142857 4602:0.25 4603:0.8 4609:0.0227273 4611:0.0869565 4615:0.0416667 4622:0.0625 4624:0.6 4627:0.818182 4629:0.05 4636:0.153846 4649:1.0 4650:0.333333 4661:0.483871 4674:0.0454545 4680:0.166667 4689:0.125 4696:0.25 4707:0.5 4710:0.030303 4713:0.125 4724:0.0704225 4727:0.0333333 4743:0.07 4746:0.75 4750:0.125 4751:0.333333 4759:0.0344828 4771:1.0 4779:0.09375 4826:0.2 4835:0.416667 4861:0.666667 4870:0.0833333 4901:0.285714 4910:0.333333 4920:0.0714286 4965:0.0322581 4973:1.0 4974:0.142857 4976:0.0909091 5038:0.133333 5041:0.3 5050:0.333333 5091:0.222222 5097:0.2 5105:0.025 5113:0.0714286 5158:0.142857 5172:0.333333 5235:0.666667 5237:1.0 5259:0.166667 5328:0.125 5357:0.05 5368:0.333333 5433:0.4 5634:0.166667 5660:0.545455 5664:0.5 5667:0.333333 5696:0.0666667 5699:0.75 5737:0.333333 5745:0.333333 5779:0.2 5833:0.944444 5985:0.25 6170:0.25 6174:0.0192308 6243:0.0909091 6454:0.166667 6498:0.2 6501:0.333333 6546:0.4 6548:0.05 6565:0.2 6769:0.238095 6782:0.5 6785:0.533333 6843:0.333333 6920:0.5 6977:0.333333 6978:0.2 6982:0.142857 6994:0.5 6995:0.5 7043:0.0222222 7051:0.416667 7077:0.05 7093:0.333333 7100:1.0 7113:0.05 7121:0.25 7139:1.0 7140:1.0 7141:0.6875 7142:0.0909091 7143:0.8 7144:0.461538 7145:0.266667 7146:1.0 7147:0.8 7148:0.2 7149:0.5 7150:0.111111 7151:0.25 7152:0.4 7153:0.333333 7154:0.125 7155:1.0 7156:0.384615 7157:1.0 7158:0.166667 7159:1.0 7160:1.0 7161:1.0 7162:1.0 7163:0.136364 7164:1.0 7165:0.0689655 7166:0.5 7167:0.5 7168:0.0833333 7169:1.0 7170:0.5 7171:0.5 7172:1.0 7173:0.2 7174:0.5 7175:0.25 7176:1.0 7177:0.0588235 7178:0.285714 7179:1.0 7180:0.25 7181:0.04 7182:0.166667 7183:0.272727 7184:1.0 7185:0.5 7186:0.333333 7187:1.0 7188:1.0 7189:0.2 7190:0.125 7191:0.166667 7192:0.0833333 7193:0.5 7194:0.666667 7195:0.25 7196:1.0 7197:1.0 7198:0.166667 7199:0.125 7200:0.2 7201:1.0 7202:0.125 7203:1.0 7204:1.0 7205:0.0444444 7206:0.25 7207:0.333333 7208:1.0 7209:1.0 7210:0.111111 7211:0.125 7212:0.111111 7213:0.333333 7214:0.25 7215:0.0357143 7216:0.25 7217:1.0 7218:0.142857 7219:1.0 7220:0.333333 7221:0.125 7222:1.0 7223:0.5 7224:1.0 7225:1.0 7226:0.5 7227:1.0 7228:0.25 7229:1.0 7230:1.0 7231:0.0153846 7232:0.142857 7233:0.5 7234:1.0 7235:1.0 7236:0.5 7237:0.142857 7238:1.0 7239:0.333333 7240:0.0163934 7241:0.333333 7242:0.5 7243:0.666667 7244:0.75 7245:0.2 7246:1.0 7247:1.0 7248:1.0 7249:1.0 7250:0.333333 7251:1.0 7252:1.0 7253:0.5 7254:0.140351 7255:0.285714 7256:1.0 7257:1.0 7258:1.0 7259:0.222222 7260:1.0 7261:0.333333 7262:0.5 7263:0.666667 7264:0.333333 7265:1.0 7266:1.0 7267:0.5 7268:0.105263 7269:1.0 7270:0.8 7271:1.0 7272:1.0 7273:1.0 7274:1.0 7275:1.0 7276:0.222222 7277:1.0 7278:0.333333 7279:0.166667 7280:1.0 7281:0.166667 7282:0.142857 7283:1.0 7284:1.0 7285:0.5 7286:1.0 7287:1.0 7288:0.333333 7289:0.2 7290:1.0 7291:1.0 7292:1.0 7293:1.0 7294:0.25 7295:0.5 7296:0.2 7297:1.0 7298:0.2 7299:0.333333 7300:1.0 7301:0.111111 7302:0.0588235 7303:0.133333 7304:0.208333 7305:0.5 7306:0.666667 7307:0.0869565 7308:0.4 7309:0.25 7310:1.0 7311:0.333333 7312:0.0909091 7313:0.666667 7314:0.2 7315:0.2 7316:1.0 7317:0.285714 7318:0.142857 7319:1.0 7320:0.2 7321:1.0 7322:1.0 7323:0.75 7324:1.0 7325:1.0 7326:0.142857 7327:1.0 7328:1.0 7329:1.0 7330:1.0 7331:1.0 7332:0.0769231 7333:0.0909091 7334:0.5 7335:0.0229885 7336:0.25 7337:0.333333 7338:1.0 7339:1.0 7340:0.25 7341:0.25 7342:1.0 7343:1.0 7344:0.125 7345:1.0 7346:0.5 7347:1.0 7348:0.0952381 7349:0.016129 7350:0.03125 7351:0.25 7352:0.5 7353:0.5 7354:0.5 7355:1.0 7356:0.133333 7357:0.142857 7358:1.0 7359:1.0 7360:1.0 7361:1.0 7362:1.0 7363:0.4 7364:0.333333 7365:0.2 7366:0.2 7367:1.0 7368:1.0 7369:1.0 7370:1.0 7371:0.5 7372:0.030303 7373:1.0 7374:1.0 7375:1.0 7376:0.5 7377:0.5 7378:0.125 7379:0.333333 7380:0.25 7381:0.25 7382:0.2 7383:0.333333 7384:0.25 7385:1.0 7386:1.0 7387:0.25 7388:1.0 7389:0.25 7390:0.5 7391:1.0 7392:1.0 7393:1.0 7394:0.5 7395:0.5 7396:1.0 7397:1.0 7398:1.0 7399:0.5 7400:0.25 7401:1.0 7402:1.0 7403:0.0192308 7404:0.1 7405:1.0 7406:1.0 7407:1.0 7408:0.25 7409:1.0 7410:1.0 7411:1.0 7412:0.666667 7413:0.0714286 7414:0.125 7415:1.0 7416:0.5 7417:1.0 7418:0.181818 7419:1.0 7420:1.0 7421:1.0 7422:0.2 7423:1.0 7424:1.0 7425:1.0 7426:0.166667 7427:1.0 7428:1.0 7429:0.25 
27.94505761492289 1:0.375 2:0.333333 3:0.392857 4:0.333333 5:0.275862 13:0.00440529 16:0.0243902 27:0.027027 30:0.0111111 33:0.037037 37:0.25 40:0.0384615 53:0.333333 55:0.166667 56:0.0769231 58:1.0 59:0.04 66:0.0526316 70:0.0576923 75:0.375 76:0.194444 79:1.0 80:0.027027 87:0.285714 90:0.05 92:0.04 107:0.236842 110:0.0909091 111:0.0666667 112:0.142857 137:0.380952 146:0.390244 148:0.0909091 151:0.105263 162:0.333333 171:0.117647 173:0.333333 175:0.0333333 183:0.0625 195:1.0 203:0.0833333 204:0.0196078 225:0.235294 228:0.0526316 235:0.3 263:0.107143 271:0.357143 290:0.0952381 303:0.133333 319:0.0178571 326:0.1 327:1.0 331:0.138462 337:0.222222 346:0.4 348:0.0666667 352:0.25 358:0.0909091 361:0.75 364:0.0625 367:0.0638298 372:0.413793 378:1.0 388:0.16 393:0.0430108 396:0.333333 407:0.583333 414:1.0 430:0.030303 438:0.5 460:0.176471 461:1.0 470:0.0227273 493:0.0512821 500:0.775862 514:0.0315789 516:0.1 517:0.285714 530:0.0322581 533:0.0384615 551:0.142857 557:0.166667 558:0.666667 560:0.5 576:0.0208333 592:0.0555556 593:0.6 600:0.0689655 602:0.0666667 611:0.148515 612:0.5 619:0.333333 620:0.25 621:0.104167 622:0.04 627:1.0 632:1.0 661:1.0 673:0.25 676:0.0416667 688:0.5 690:0.444444 693:0.025641 695:0.454545 697:0.05 698:0.111111 702:0.0153846 703:0.126761 709:0.142857 736:0.538462 747:0.0833333 755:0.125 770:0.0625 793:0.117647 813:0.111111 849:0.584416 850:1.0 876:0.047619 1011:0.125 1087:0.0117647 1101:0.657143 1149:0.142857 1209:0.125 1223:0.142857 1269:0.00877193 1299:0.125 1304:0.142857 1405:0.0526316 1468:0.2 1479:0.25 1489:0.0810811 1514:0.0606061 1532:0.147059 1533:0.166667 1538:0.0625 1552:0.5 1586:0.333333 1599:0.166667 1609:0.5 1724:0.0588235 1732:0.333333 1777:0.25 1822:0.444444 1828:0.833333 1846:0.0666667 1876:0.0833333 1909:0.285714 1910:0.1 1964:0.5 2002:0.125 2009:0.0588235 2069:0.125 2073:0.0833333 2089:0.142857 2091:0.0153846 2093:0.0393258 2102:0.0363636 2106:0.111111 2127:0.152174 2137:0.333333 2150:0.0571429 2155:1.0 2181:0.909091 2192:0.0454545 2193:0.0833333 2221:0.375 2222:0.15 2254:0.2 2257:0.00847458 2260:0.0662983 2782:0.25 2840:0.636364 2921:0.6 3392:0.0769231 3466:0.142857 3504:1.0 3508:0.0487805 3510:0.166667 3520:0.0526316 3545:0.166667 3652:0.25 3661:0.0909091 3695:0.357143 3718:0.0416667 3813:0.0769231 3874:0.714286 3911:0.166667 4012:0.166667 4063:0.0833333 4231:0.285714 4320:0.483871 4359:0.142857 4360:0.25 4365:0.111111 4435:0.1 4436:1.0 4493:0.0434783 4518:0.142857 4533:0.25 4588:0.25 4606:0.111111 4617:0.285714 4639:0.0333333 4669:0.47619 4676:0.333333 4711:0.142857 4718:0.5 4806:0.0740741 4971:0.5 4976:0.181818 5000:0.0666667 5045:0.25 5104:0.142857 5163:0.571429 5376:0.125 5422:0.5 5431:0.9 5682:0.107143 5747:0.4 5763:1.0 5764:1.0 5780:0.4 5819:0.333333 6053:1.0 6131:1.0 6295:0.0133333 6387:0.714286 6412:0.1 6848:1.0 6976:0.037037 7021:0.142857 7048:0.125 7056:0.25 7123:0.333333 7184:0.2 7199:0.125 7244:0.25 7247:1.0 7302:0.0588235 7312:0.0909091 7330:1.0 7400:0.25 7430:0.277778 7431:1.0 7432:0.666667 7433:1.0 7434:0.5 7435:1.0 7436:1.0 7437:0.166667 7438:0.2 7439:1.0 7440:1.0 7441:0.166667 7442:1.0 7443:1.0 7444:0.5 7445:0.363636 7446:0.1 7447:0.5 7448:0.625 7449:0.666667 7450:0.714286 7451:0.5 7452:0.5 7453:1.0 7454:0.5 7455:0.555556 7456:1.0 7457:0.133333 7458:1.0 7459:0.571429 7460:0.333333 7461:0.4 7462:1.0 7463:0.130435 7464:0.666667 7465:1.0 7466:1.0 7467:0.2 7468:0.25 7469:1.0 7470:1.0 7471:0.333333 7472:1.0 7473:1.0 7474:1.0 7475:0.0416667 7476:1.0 7477:1.0 7478:0.818182 7479:1.0 7480:1.0 7481:1.0 7482:0.0869565 7483:1.0 7484:1.0 7485:1.0 7486:1.0 7487:1.0 7488:1.0 7489:1.0 7490:1.0 7491:0.166667 7492:0.0625 7493:0.272727 7494:1.0 7495:0.428571 7496:1.0 7497:0.3 7498:0.25 7499:0.142857 7500:1.0 7501:1.0 7502:1.0 7503:1.0 7504:1.0 7505:1.0 7506:1.0 7507:0.142857 7508:0.5 7509:0.25 7510:0.0784314 7511:1.0 7512:0.0909091 7513:0.0454545 7514:0.235294 7515:0.0377358 7516:1.0 7517:1.0 7518:0.5 7519:0.047619 7520:0.1 7521:1.0 7522:1.0 7523:0.0344828 7524:0.142857 7525:0.25 7526:0.25 7527:1.0 7528:0.25 7529:0.5 7530:0.0232558 7531:1.0 7532:1.0 7533:1.0 7534:0.5 7535:0.142857 7536:0.2 7537:1.0 7538:1.0 7539:1.0 7540:1.0 7541:0.166667 7542:1.0 7543:1.0 7544:1.0 7545:1.0 
